{"learner":{"attributes":{"scikit_learn":"{\"_estimator_type\": \"classifier\"}"},"feature_names":["nb_www","nb_hyperlinks","phish_hints","ip","length_words_raw","longest_word_path","ratio_digits_host","domain_in_title","nb_dots","nb_hyphens","nb_qm","domain_age","nb_underscore","nb_slash","nb_eq","ratio_extHyperlinks","ratio_digits_url","nb_space","longest_words_raw","length_hostname"],"feature_types":["int","int","int","int","int","int","float","int","int","int","int","int","int","int","int","float","float","int","int","int"],"gradient_booster":{"model":{"gbtree_model_param":{"num_parallel_tree":"1","num_trees":"100"},"iteration_indptr":[0,1,2,3,4,5,6,7,8,9,10,11,12,13,14,15,16,17,18,19,20,21,22,23,24,25,26,27,28,29,30,31,32,33,34,35,36,37,38,39,40,41,42,43,44,45,46,47,48,49,50,51,52,53,54,55,56,57,58,59,60,61,62,63,64,65,66,67,68,69,70,71,72,73,74,75,76,77,78,79,80,81,82,83,84,85,86,87,88,89,90,91,92,93,94,95,96,97,98,99,100],"tree_info":[0,0,0,0,0,0,0,0,0,0,0,0,0,0,0,0,0,0,0,0,0,0,0,0,0,0,0,0,0,0,0,0,0,0,0,0,0,0,0,0,0,0,0,0,0,0,0,0,0,0,0,0,0,0,0,0,0,0,0,0,0,0,0,0,0,0,0,0,0,0,0,0,0,0,0,0,0,0,0,0,0,0,0,0,0,0,0,0,0,0,0,0,0,0,0,0,0,0,0,0],"trees":[{"base_weights":[-2.3560604E-8,8.9921296E-1,-1.3560891E0,1.4156348E0,-1.4294852E-1,-1.5583433E0,6.9698673E-1,-6.203489E-1,1.5022513E0,-6.1761355E-1,1.5297529E0,-1.6023501E0,1.5777329E0,1.2961196E0,-7.533583E-1,8.940627E-2,-1.4030614E0,1.5633419E0,-1.2463316E0,-8.897611E-1,1.588982E0,1.701275E0,-2.0551357E-1,-1.1375434E0,-1.8759063E0,6.56463E-2,5.146171E-1,1.5030918E0,-4.1197985E-1,3.944915E-1,-1.4343194E0,-8.3895445E-1,1.1944982E0,-4.4290957E-1,-6.768773E-2,1.6153417E0,7.6723516E-2,1.1530683E0,-5.6422746E-1,-1.8303673E0,-4.7629237E-1,-9.201641E-2,1.8214067E0,-1.2248593E-3,1.739112E0,-8.0531424E-1,3.415471E-1,2.4116072E-1,-1.5154685E0,-1.8852133E0,1.6246817E-1,7.768463E-1,1.7875985E0,-3.1287685E-1,3.985739E-1,-4.4921103E-1,-5.0373244E-1,-4.0954655E-1,-6.8232305E-2,-1.3123499E-3,4.7841159E-1,4.0323904E-1,5.3820145E-1,-2.219994E-1,4.4180456E-1,4.2726198E-1,6.56463E-2,-2.5153303E-1,-5.625854E-1,1.447678E-1,-2.9261246E-1,2.5583223E-1,-3.24351E-1,5.707431E-1,9.877577E-2,5.463386E-1,2.7639312E-1,-3.8332438E-1,9.877577E-2,-4.7999588E-1,2.5958765E-1,-4.8157233E-1,9.831668E-2,-5.6867015E-1,-2.7055156E-1,-9.386306E-2,3.9406717E-1,-1.1023727E-3,5.579487E-1,-2.5863215E-1,3.3231437E-1,-3.8298967E-1,1.6246817E-1],"categories":[],"categories_nodes":[],"categories_segments":[],"categories_sizes":[],"default_left":[0,0,0,0,0,0,0,0,0,0,0,0,0,0,0,0,0,0,0,0,0,0,0,0,0,0,0,0,0,0,0,0,0,0,0,0,0,0,0,0,0,0,0,0,0,0,0,0,0,0,0,0,0,0,0,0,0,0,0,0,0,0,0,0,0,0,0,0,0,0,0,0,0,0,0,0,0,0,0,0,0,0,0,0,0,0,0,0,0,0,0,0,0],"id":0,"left_children":[1,3,5,7,9,11,13,15,17,19,21,23,25,27,29,31,33,35,37,39,41,43,45,47,49,-1,-1,51,-1,53,55,57,59,-1,-1,61,63,65,-1,67,69,71,73,-1,75,77,-1,79,81,83,-1,85,87,89,-1,91,-1,-1,-1,-1,-1,-1,-1,-1,-1,-1,-1,-1,-1,-1,-1,-1,-1,-1,-1,-1,-1,-1,-1,-1,-1,-1,-1,-1,-1,-1,-1,-1,-1,-1,-1,-1,-1],"loss_changes":[2.7899907E3,7.406172E2,3.7988794E2,1.6317212E2,3.6358847E2,1.1717786E2,7.266411E1,2.1374435E1,1.5017188E2,2.1549704E2,3.0485062E1,1.02096924E2,1.8693867E0,3.452256E1,1.9911266E1,2.2546339E1,1.2420425E0,6.6666016E1,3.223267E1,1.2280086E2,1.5600327E1,5.959564E0,8.978119E0,1.5993448E2,1.2596436E1,0E0,0E0,9.97541E0,0E0,7.0230703E0,3.0437012E0,3.5508194E0,4.8049107E0,0E0,0E0,3.8036377E1,3.5577766E1,8.9156723E-1,0E0,2.7382812E0,1.0682655E2,6.2955737E0,3.5772476E0,0E0,4.3754883E0,4.440725E0,0E0,7.808735E1,4.03208E1,3.5113525E0,0E0,1.0499832E1,5.020439E0,6.026435E0,0E0,4.3803806E0,0E0,0E0,0E0,0E0,0E0,0E0,0E0,0E0,0E0,0E0,0E0,0E0,0E0,0E0,0E0,0E0,0E0,0E0,0E0,0E0,0E0,0E0,0E0,0E0,0E0,0E0,0E0,0E0,0E0,0E0,0E0,0E0,0E0,0E0,0E0,0E0,0E0],"parents":[2147483647,0,0,1,1,2,2,3,3,4,4,5,5,6,6,7,7,8,8,9,9,10,10,11,11,12,12,13,13,14,14,15,15,16,16,17,17,18,18,19,19,20,20,21,21,22,22,23,23,24,24,27,27,29,29,30,30,31,31,32,32,35,35,36,36,37,37,39,39,40,40,41,41,42,42,44,44,45,45,47,47,48,48,49,49,51,51,52,52,53,53,55,55],"right_children":[2,4,6,8,10,12,14,16,18,20,22,24,26,28,30,32,34,36,38,40,42,44,46,48,50,-1,-1,52,-1,54,56,58,60,-1,-1,62,64,66,-1,68,70,72,74,-1,76,78,-1,80,82,84,-1,86,88,90,-1,92,-1,-1,-1,-1,-1,-1,-1,-1,-1,-1,-1,-1,-1,-1,-1,-1,-1,-1,-1,-1,-1,-1,-1,-1,-1,-1,-1,-1,-1,-1,-1,-1,-1,-1,-1,-1,-1],"split_conditions":[5.2E1,1E0,1E0,2E0,1E0,3.2E1,4.941E3,9.67E2,8.944E3,1E0,7.547E3,1E0,7.7922076E-2,4E0,1E0,1E0,6.1904764E-1,5E0,4E0,3E0,1.4E1,1E0,1E0,2.105E3,5E0,6.56463E-2,5.146171E-1,5E0,-4.1197985E-1,1.2E1,6.057E3,1.2E1,3E0,-4.4290957E-1,-6.768773E-2,1.1235955E-2,1.12676054E-1,1E0,-5.6422746E-1,3E0,2.428E3,8.85E2,7.506E3,-1.2248593E-3,5.233E3,1.6E1,3.415471E-1,2E0,5.4054055E-2,4E0,1.6246817E-1,1E0,6E0,3.8461536E-2,3.985739E-1,3E0,-5.0373244E-1,-4.0954655E-1,-6.8232305E-2,-1.3123499E-3,4.7841159E-1,4.0323904E-1,5.3820145E-1,-2.219994E-1,4.4180456E-1,4.2726198E-1,6.56463E-2,-2.5153303E-1,-5.625854E-1,1.447678E-1,-2.9261246E-1,2.5583223E-1,-3.24351E-1,5.707431E-1,9.877577E-2,5.463386E-1,2.7639312E-1,-3.8332438E-1,9.877577E-2,-4.7999588E-1,2.5958765E-1,-4.8157233E-1,9.831668E-2,-5.6867015E-1,-2.7055156E-1,-9.386306E-2,3.9406717E-1,-1.1023727E-3,5.579487E-1,-2.5863215E-1,3.3231437E-1,-3.8298967E-1,1.6246817E-1],"split_indices":[1,0,2,4,2,5,11,11,11,3,11,0,16,9,0,11,15,9,13,4,18,5,10,11,8,0,0,13,0,18,11,19,13,0,0,16,16,1,0,13,11,11,11,0,11,18,0,4,6,8,0,11,5,6,0,8,0,0,0,0,0,0,0,0,0,0,0,0,0,0,0,0,0,0,0,0,0,0,0,0,0,0,0,0,0,0,0,0,0,0,0,0,0],"split_type":[0,0,0,0,0,0,0,0,0,0,0,0,0,0,0,0,0,0,0,0,0,0,0,0,0,0,0,0,0,0,0,0,0,0,0,0,0,0,0,0,0,0,0,0,0,0,0,0,0,0,0,0,0,0,0,0,0,0,0,0,0,0,0,0,0,0,0,0,0,0,0,0,0,0,0,0,0,0,0,0,0,0,0,0,0,0,0,0,0,0,0,0,0],"sum_hessian":[2.2859785E3,1.3747372E3,9.1124146E2,9.189914E2,4.5574573E2,8.2974225E2,8.149924E1,3.7249653E1,8.8174176E2,3.5549667E2,1.0024906E2,8.187423E2,1.0999897E1,5.774946E1,2.3749777E1,1.9999813E1,1.7249838E1,8.6299194E2,1.8749825E1,3.1699704E2,3.849964E1,9.1249146E1,8.999916E0,3.0524713E2,5.134952E2,1.2499883E0,9.749908E0,5.3999496E1,3.749965E0,8.999916E0,1.4749862E1,1.0999897E1,8.999916E0,1.599985E1,1.2499883E0,8.337422E2,2.9249725E1,3.749965E0,1.499986E1,9.574911E1,2.2124792E2,4.7499557E0,3.3749683E1,1.9999813E0,8.924917E1,6.499939E0,2.4999766E0,6.574938E1,2.3949776E2,5.117452E2,1.7499837E0,1.6249847E1,3.7749645E1,5.4999485E0,3.4999673E0,3.4999673E0,1.1249895E1,5.249951E0,5.749946E0,2.4999766E0,6.499939E0,3.3449686E2,4.9924533E2,1.8749825E1,1.0499902E1,2.4999766E0,1.2499883E0,4.9999533E0,9.074915E1,7.574929E1,1.4549864E2,2.4999766E0,2.249979E0,3.1749702E1,1.9999813E0,7.999925E1,9.249913E0,4.499958E0,1.9999813E0,1.6249847E1,4.949954E1,2.2849786E2,1.0999897E1,5.0549527E2,6.2499413E0,5.4999485E0,1.07499E1,1.4999859E0,3.624966E1,4.2499604E0,1.2499883E0,1.7499837E0,1.7499837E0],"tree_param":{"num_deleted":"0","num_feature":"20","num_nodes":"93","size_leaf_vector":"1"}},{"base_weights":[2.7892542E-5,6.708969E-1,-1.0236549E0,1.0605575E0,-1.0308695E-1,-1.177842E0,5.2305067E-1,-4.6571115E-1,1.1270318E0,-1.4071703E0,2.3841149E-1,-7.93239E-1,-1.4145583E0,1.1106328E0,-4.1640204E-1,1.14734836E-1,-1.036621E0,1.172766E0,-9.4445664E-1,-1.4350941E0,-3.2351536E-1,7.312566E-1,-5.5929166E-1,-2.9446214E-1,-1.438522E0,-1.4366127E0,7.5154936E-1,1.2187613E0,-2.4676856E-1,4.9127576E-1,-9.353391E-1,-6.4084196E-1,1.1581283E0,-7.488936E-1,-4.3053168E-1,1.3389636E0,8.597744E-1,9.371949E-1,-4.4000998E-1,-7.1806127E-1,-4.39317E-1,1.5237986E-1,-2.82094E-1,1.2314844E0,2.5154722E-1,-7.395719E-1,4.341551E-1,-5.184177E-1,9.281806E-1,-1.4772063E0,2.968398E-1,-1.4444234E0,1.3212118E-1,3.2167127E-3,3.4433082E-1,-1.4963582E-1,1.3901614E0,8.9652956E-1,-6.5401894E-1,-1.2499508E0,2.9837614E-1,-3.4466645E-1,-3.4255177E-2,3.968301E-1,6.412707E-2,5.1724892E-2,-2.633809E-1,4.173034E-1,2.0996264E-1,3.1417453E-1,-3.2772586E-1,4.3119885E-2,3.5516334E-1,-6.701195E-2,-3.3841133E-1,3.9409596E-1,-2.194412E-1,-9.1979675E-2,4.1151562E-1,-2.7899745E-1,9.664554E-2,-2.1665245E-1,1.3714515E-1,3.5031536E-1,-2.683127E-1,-4.5115212E-1,-1.6366577E-1,-4.3501574E-1,-1.0773251E-1,-3.4165537E-1,2.1615757E-1,2.7477962E-1,4.632658E-1,-1.1323856E-1,3.5629153E-1,-3.140477E-1,2.4380686E-2,-1.0337386E-1,-4.1540545E-1],"categories":[],"categories_nodes":[],"categories_segments":[],"categories_sizes":[],"default_left":[0,0,0,0,0,0,0,0,0,0,0,0,0,0,0,0,0,0,0,0,0,0,0,0,0,0,0,0,0,0,0,0,0,0,0,0,0,0,0,0,0,0,0,0,0,0,0,0,0,0,0,0,0,0,0,0,0,0,0,0,0,0,0,0,0,0,0,0,0,0,0,0,0,0,0,0,0,0,0,0,0,0,0,0,0,0,0,0,0,0,0,0,0,0,0,0,0,0,0],"id":1,"left_children":[1,3,5,7,9,11,13,15,17,19,21,23,25,27,29,31,33,35,37,39,41,43,45,47,49,51,53,55,-1,57,59,61,63,65,-1,67,69,71,-1,73,-1,-1,-1,75,77,79,-1,81,83,85,-1,87,-1,-1,-1,89,91,93,95,97,-1,-1,-1,-1,-1,-1,-1,-1,-1,-1,-1,-1,-1,-1,-1,-1,-1,-1,-1,-1,-1,-1,-1,-1,-1,-1,-1,-1,-1,-1,-1,-1,-1,-1,-1,-1,-1,-1,-1],"loss_changes":[1.4831666E3,3.935829E2,2.0451978E2,8.857684E1,1.9530315E2,6.9690796E1,4.362898E1,1.2356472E1,7.9923584E1,2.2892914E0,1.3714258E2,9.568581E1,2.4019714E1,1.1115974E1,1.4975346E1,1.5888059E1,1.071249E0,4.1213257E1,1.9578333E1,8.058624E-1,2.312018E0,5.1380783E1,4.9319553E1,4.694367E1,1.3665314E1,7.6102905E0,1.601059E0,1.1049133E1,0E0,6.0935802E0,1.3357464E1,3.022492E0,1.0272131E0,1.6922016E0,0E0,1.6661072E1,1.05544464E2,7.3698044E-1,0E0,8.4987974E-1,0E0,0E0,0E0,1.7927841E1,6.995541E1,2.5177109E1,0E0,2.8965443E1,1.2669392E1,2.362976E0,0E0,2.3746948E0,0E0,0E0,0E0,6.026524E0,1.5937347E0,3.855165E0,1.1477835E0,1.6695824E0,0E0,0E0,0E0,0E0,0E0,0E0,0E0,0E0,0E0,0E0,0E0,0E0,0E0,0E0,0E0,0E0,0E0,0E0,0E0,0E0,0E0,0E0,0E0,0E0,0E0,0E0,0E0,0E0,0E0,0E0,0E0,0E0,0E0,0E0,0E0,0E0,0E0,0E0,0E0],"parents":[2147483647,0,0,1,1,2,2,3,3,4,4,5,5,6,6,7,7,8,8,9,9,10,10,11,11,12,12,13,13,14,14,15,15,16,16,17,17,18,18,19,19,20,20,21,21,22,22,23,23,24,24,25,25,26,26,27,27,29,29,30,30,31,31,32,32,33,33,35,35,36,36,37,37,39,39,43,43,44,44,45,45,47,47,48,48,49,49,51,51,55,55,56,56,57,57,58,58,59,59],"right_children":[2,4,6,8,10,12,14,16,18,20,22,24,26,28,30,32,34,36,38,40,42,44,46,48,50,52,54,56,-1,58,60,62,64,66,-1,68,70,72,-1,74,-1,-1,-1,76,78,80,-1,82,84,86,-1,88,-1,-1,-1,90,92,94,96,98,-1,-1,-1,-1,-1,-1,-1,-1,-1,-1,-1,-1,-1,-1,-1,-1,-1,-1,-1,-1,-1,-1,-1,-1,-1,-1,-1,-1,-1,-1,-1,-1,-1,-1,-1,-1,-1,-1,-1],"split_conditions":[5.2E1,1E0,1E0,2E0,3E0,1E0,3.747E3,8.08E2,8.944E3,4.477612E-2,4.632E3,7.083E3,3E1,4E0,1E0,1E0,4.225E3,4.632E3,4E0,3E0,8.77193E-2,4.784689E-3,3.1E1,3E0,2.2E1,5E0,1.724138E-1,1E0,-2.4676856E-1,2E0,4E0,3E0,2.6345083E-1,4.784689E-3,-4.3053168E-1,3E0,3.1E1,9E0,-4.4000998E-1,2.54E2,-4.39317E-1,1.5237986E-1,-2.82094E-1,4E0,1E0,1E0,4.341551E-1,6.451613E-1,4E0,1.6666668E-2,2.968398E-1,9E0,1.3212118E-1,3.2167127E-3,3.4433082E-1,5E0,8E0,1E0,6.338028E-2,7E0,2.9837614E-1,-3.4466645E-1,-3.4255177E-2,3.968301E-1,6.412707E-2,5.1724892E-2,-2.633809E-1,4.173034E-1,2.0996264E-1,3.1417453E-1,-3.2772586E-1,4.3119885E-2,3.5516334E-1,-6.701195E-2,-3.3841133E-1,3.9409596E-1,-2.194412E-1,-9.1979675E-2,4.1151562E-1,-2.7899745E-1,9.664554E-2,-2.1665245E-1,1.3714515E-1,3.5031536E-1,-2.683127E-1,-4.5115212E-1,-1.6366577E-1,-4.3501574E-1,-1.0773251E-1,-3.4165537E-1,2.1615757E-1,2.7477962E-1,4.632658E-1,-1.1323856E-1,3.5629153E-1,-3.140477E-1,2.4380686E-2,-1.0337386E-1,-4.1540545E-1],"split_indices":[1,0,2,4,4,0,11,11,11,16,11,11,5,9,0,11,11,11,13,13,6,15,5,8,5,8,16,7,0,9,8,13,15,15,0,9,1,4,0,11,0,0,0,9,2,2,0,15,9,6,0,13,0,0,0,13,5,7,16,5,0,0,0,0,0,0,0,0,0,0,0,0,0,0,0,0,0,0,0,0,0,0,0,0,0,0,0,0,0,0,0,0,0,0,0,0,0,0,0],"split_type":[0,0,0,0,0,0,0,0,0,0,0,0,0,0,0,0,0,0,0,0,0,0,0,0,0,0,0,0,0,0,0,0,0,0,0,0,0,0,0,0,0,0,0,0,0,0,0,0,0,0,0,0,0,0,0,0,0,0,0,0,0,0,0,0,0,0,0,0,0,0,0,0,0,0,0,0,0,0,0,0,0,0,0,0,0,0,0,0,0,0,0,0,0,0,0,0,0,0,0],"sum_hessian":[2.157667E3,1.3036599E3,8.5400696E2,8.6686725E2,4.3679272E2,7.7680756E2,7.71994E1,3.5928753E1,8.309385E2,8.999757E1,3.4679514E2,2.9761346E2,4.791941E2,4.7382027E1,2.9817377E1,1.8211792E1,1.7716959E1,8.134139E2,1.7524601E1,8.7420586E1,2.5769792E0,2.1440967E2,1.3238548E2,1.6868404E2,1.2892941E2,4.7469766E2,4.496416E0,4.5222195E1,2.1598313E0,1.0865583E1,1.8951794E1,1.0786512E1,7.4252787E0,1.1960319E1,5.7566414E0,5.291557E2,2.8425818E2,3.6345813E0,1.3890018E1,4.4329205E0,8.298766E1,1.1726878E0,1.4042914E0,1.04192955E2,1.1021672E2,1.2205072E2,1.0334759E1,1.4305598E2,2.5628056E1,1.27292885E2,1.6365253E0,4.7296005E2,1.7376235E0,1.9247333E0,2.5716825E0,5.047972E0,4.017422E1,8.186173E0,2.679409E0,1.659831E1,2.3534827E0,4.8889074E0,5.897605E0,5.981753E0,1.4435259E0,1.4281087E0,1.0532209E1,4.8821832E2,4.0937378E1,2.597749E2,2.4483276E1,1.2373323E0,2.397249E0,2.709007E0,1.7239136E0,1.0032419E2,3.8687618E0,7.4047485E1,3.6169235E1,1.03595085E2,1.8455637E1,1.1855445E2,2.4501537E1,2.2968605E1,2.659451E0,1.23157906E2,4.134976E0,4.7018542E2,2.774636E0,2.217872E0,2.8301003E0,1.1553859E1,2.8620363E1,1.4674551E0,6.7187185E0,1.4702661E0,1.209143E0,2.6109564E0,1.3987354E1],"tree_param":{"num_deleted":"0","num_feature":"20","num_nodes":"99","size_leaf_vector":"1"}},{"base_weights":[-1.3876156E-3,6.798799E-1,-6.607926E-1,9.3070334E-1,1.408055E-1,-8.557182E-1,9.1006255E-1,-2.140112E-1,9.7777265E-1,-1.1681427E0,3.881729E-1,-9.892033E-1,4.272911E-1,-6.770615E-1,1.2302198E0,2.4522646E-1,-7.254856E-1,1.0039868E0,-3.5851818E-1,-5.1738924E-1,-3.637842E-1,6.6481376E-1,-5.009008E-1,-1.0583311E0,3.5761634E-1,8.9611703E-1,-3.9103928E-1,6.5060264E-1,-1.1228379E0,1.3180382E0,-3.056205E-1,-4.3267158E-1,1.0266408E0,-1.0525447E0,-4.25908E-1,1.0516069E0,1.8607017E-1,-3.2766107E-1,4.3297816E-2,-4.807918E-1,8.077673E-1,-7.227364E-1,1.0499543E0,-5.8705986E-1,-1.1869642E0,7.3116446E-1,-7.739424E-1,1.0087018E0,-2.9648674E-1,6.5136194E-2,-1.285004E0,-1.4518537E-1,3.463478E-1,-1.588146E-1,-3.8930964E-1,1.3875825E0,3.979432E-1,-2.6714262E-1,5.9024137E-2,8.268611E-3,3.6659142E-1,-3.5388845E-1,-8.458671E-2,5.0105672E-2,-2.554588E-1,2.8341097E-1,4.0171072E-1,-1.4204302E-1,3.3527336E-1,-3.182894E-1,3.1696603E-1,2.7929002E-1,-5.8762766E-2,-2.5455952E-1,4.2981035E-1,2.6564524E-2,3.8368756E-1,-3.068801E-1,1.1391723E-1,-3.6228397E-1,-7.71753E-3,2.913595E-1,-2.040416E-1,-3.315016E-1,2.905847E-1,-1.278158E-1,3.5281375E-1,1.2642272E-1,-2.8463492E-1,-4.2444947E-1,-3.374286E-2,1.4507568E-1,-2.4040419E-1,4.1962722E-1,1.2359657E-1,-1.066853E-1,3.6491936E-1],"categories":[],"categories_nodes":[],"categories_segments":[],"categories_sizes":[],"default_left":[0,0,0,0,0,0,0,0,0,0,0,0,0,0,0,0,0,0,0,0,0,0,0,0,0,0,0,0,0,0,0,0,0,0,0,0,0,0,0,0,0,0,0,0,0,0,0,0,0,0,0,0,0,0,0,0,0,0,0,0,0,0,0,0,0,0,0,0,0,0,0,0,0,0,0,0,0,0,0,0,0,0,0,0,0,0,0,0,0,0,0,0,0,0,0,0,0],"id":2,"left_children":[1,3,5,7,9,11,13,15,17,19,21,23,25,27,29,31,33,35,-1,37,-1,39,41,43,45,47,49,51,53,55,-1,57,59,61,63,65,67,-1,-1,69,71,73,75,77,79,81,83,85,-1,87,89,-1,-1,91,-1,93,95,-1,-1,-1,-1,-1,-1,-1,-1,-1,-1,-1,-1,-1,-1,-1,-1,-1,-1,-1,-1,-1,-1,-1,-1,-1,-1,-1,-1,-1,-1,-1,-1,-1,-1,-1,-1,-1,-1,-1,-1],"loss_changes":[8.685491E2,1.2844827E2,3.016107E2,3.516736E1,9.86074E1,1.5019678E2,5.618853E1,6.3894825E0,3.670569E1,7.7420807E-1,6.322545E1,7.4154785E1,3.223621E1,1.1935108E1,1.9316818E1,8.2211685E0,8.022742E-1,2.381549E1,0E0,1.9994385E0,0E0,3.2397636E1,2.183218E1,4.501056E1,1.723431E1,1.2271416E1,1.2712568E1,3.641198E0,2.2448883E0,5.0802307E0,0E0,2.6431684E0,1.3550973E0,1.983881E-1,2.2472496E0,1.6628601E1,2.2113249E1,0E0,0E0,2.1020473E1,2.1714935E1,1.5906397E1,1.6641502E0,6.934982E1,1.4148254E1,1.0877981E1,6.9966702E0,1.2659988E1,0E0,8.150586E0,1.4409885E0,0E0,0E0,1.7792966E0,0E0,3.115692E-1,5.1123667E0,0E0,0E0,0E0,0E0,0E0,0E0,0E0,0E0,0E0,0E0,0E0,0E0,0E0,0E0,0E0,0E0,0E0,0E0,0E0,0E0,0E0,0E0,0E0,0E0,0E0,0E0,0E0,0E0,0E0,0E0,0E0,0E0,0E0,0E0,0E0,0E0,0E0,0E0,0E0,0E0],"parents":[2147483647,0,0,1,1,2,2,3,3,4,4,5,5,6,6,7,7,8,8,9,9,10,10,11,11,12,12,13,13,14,14,15,15,16,16,17,17,19,19,21,21,22,22,23,23,24,24,25,25,26,26,27,27,28,28,29,29,31,31,32,32,33,33,34,34,35,35,36,36,39,39,40,40,41,41,42,42,43,43,44,44,45,45,46,46,47,47,49,49,50,50,53,53,55,55,56,56],"right_children":[2,4,6,8,10,12,14,16,18,20,22,24,26,28,30,32,34,36,-1,38,-1,40,42,44,46,48,50,52,54,56,-1,58,60,62,64,66,68,-1,-1,70,72,74,76,78,80,82,84,86,-1,88,90,-1,-1,92,-1,94,96,-1,-1,-1,-1,-1,-1,-1,-1,-1,-1,-1,-1,-1,-1,-1,-1,-1,-1,-1,-1,-1,-1,-1,-1,-1,-1,-1,-1,-1,-1,-1,-1,-1,-1,-1,-1,-1,-1,-1,-1],"split_conditions":[3.2E1,1E0,1.5E1,2E0,3E0,1E0,5.4054055E-2,8.08E2,9.399E3,3E0,6.087E3,6.779661E-2,3.747E3,5.2E1,7.836E3,1E0,3E0,4E0,-3.5851818E-1,1E0,-3.637842E-1,1E0,1E0,1.877E3,1E0,4E0,2E0,7E0,1.728E3,1.3E2,-3.056205E-1,9E0,6E0,4.0625E-1,2.9411766E-1,1E0,1.6E1,-3.2766107E-1,4.3297816E-2,2.1E1,3E0,2.8E1,9E0,1E0,4E0,7.083E3,2.3E1,1E0,-2.9648674E-1,7.802E3,2.8E1,-1.4518537E-1,3.463478E-1,8.2E1,-3.8930964E-1,5E0,6E0,-2.6714262E-1,5.9024137E-2,8.268611E-3,3.6659142E-1,-3.5388845E-1,-8.458671E-2,5.0105672E-2,-2.554588E-1,2.8341097E-1,4.0171072E-1,-1.4204302E-1,3.3527336E-1,-3.182894E-1,3.1696603E-1,2.7929002E-1,-5.8762766E-2,-2.5455952E-1,4.2981035E-1,2.6564524E-2,3.8368756E-1,-3.068801E-1,1.1391723E-1,-3.6228397E-1,-7.71753E-3,2.913595E-1,-2.040416E-1,-3.315016E-1,2.905847E-1,-1.278158E-1,3.5281375E-1,1.2642272E-1,-2.8463492E-1,-4.2444947E-1,-3.374286E-2,1.4507568E-1,-2.4040419E-1,4.1962722E-1,1.2359657E-1,-1.066853E-1,3.6491936E-1],"split_indices":[1,0,5,4,4,2,16,11,11,13,11,6,11,1,11,11,13,9,0,11,0,7,10,11,0,9,9,4,11,1,0,18,18,15,15,2,18,0,0,19,9,19,5,11,8,11,19,7,0,11,19,0,0,1,0,9,13,0,0,0,0,0,0,0,0,0,0,0,0,0,0,0,0,0,0,0,0,0,0,0,0,0,0,0,0,0,0,0,0,0,0,0,0,0,0,0,0],"split_type":[0,0,0,0,0,0,0,0,0,0,0,0,0,0,0,0,0,0,0,0,0,0,0,0,0,0,0,0,0,0,0,0,0,0,0,0,0,0,0,0,0,0,0,0,0,0,0,0,0,0,0,0,0,0,0,0,0,0,0,0,0,0,0,0,0,0,0,0,0,0,0,0,0,0,0,0,0,0,0,0,0,0,0,0,0,0,0,0,0,0,0,0,0,0,0,0,0],"sum_hessian":[1.931412E3,9.499428E2,9.8146924E2,6.478031E2,3.0213977E2,8.7352924E2,1.07939964E2,2.5444796E1,6.223583E2,4.7431736E1,2.5470802E2,7.914186E2,8.2110695E1,1.7931736E1,9.000823E1,1.3681307E1,1.1763489E1,6.154709E2,6.887416E0,3.8422246E0,4.358951E1,1.9445451E2,6.02535E1,7.5298456E2,3.8434025E1,5.2142765E1,2.9967928E1,4.391869E0,1.3539866E1,8.7024E1,2.9842257E0,7.5648723E0,6.1164346E0,4.422197E0,7.341292E0,5.813389E2,3.413192E1,1.7079822E0,2.1342423E0,2.131072E1,1.731438E2,5.3180496E1,7.073007E0,1.6264996E2,5.903346E2,2.9161219E1,9.272806E0,4.9641613E1,2.5011506E0,2.0456467E1,9.511461E0,1.3628528E0,3.0290163E0,2.3718543E0,1.1168013E1,8.043624E1,6.5877633E0,4.139369E0,3.425503E0,1.1868793E0,4.9295554E0,3.3404803E0,1.0817167E0,3.321603E0,4.019689E0,4.268624E2,1.5447655E2,2.0270943E1,1.3860978E1,1.5696827E1,5.6138935E0,1.5427821E2,1.8865585E1,5.0820827E1,2.3596656E0,1.6274234E0,5.445584E0,1.120667E2,5.0583256E1,5.7998145E2,1.0353128E1,2.5188936E1,3.9722812E0,8.099819E0,1.1729863E0,5.023735E0,4.4617878E1,1.5569873E1,4.886595E0,8.377245E0,1.1342167E0,1.3097501E0,1.0621041E0,7.909649E1,1.3397477E0,3.7242777E0,2.8634856E0],"tree_param":{"num_deleted":"0","num_feature":"20","num_nodes":"97","size_leaf_vector":"1"}},{"base_weights":[-2.4121485E-3,4.31009E-1,-6.992286E-1,7.053803E-1,-7.387916E-2,-2.9720318E-1,-9.91456E-1,5.4047173E-1,1.1777682E0,-3.2308787E-1,8.7914026E-1,1.01895474E-1,-1.0271492E0,-1.0457723E0,8.1325746E-1,6.8302524E-1,-6.299389E-1,1.1997149E0,-3.482238E-1,2.6727885E-1,-6.880768E-1,1.0145046E0,-2.3045136E-1,-1.0660411E0,2.9814643E-1,-1.0586876E0,2.268473E-1,-1.0869379E0,2.832785E-1,3.360687E-1,-2.3905683E-1,8.205706E-1,1.15906045E-1,-8.877166E-1,6.8571556E-1,4.1195136E-1,1.2544838E0,4.4319642E-1,-3.9593658E-1,-8.035044E-1,6.000956E-1,7.237945E-1,1.2405562E0,-7.4127483E-1,5.69561E-1,-1.1711628E0,3.944574E-2,5.122666E-1,-1.1025481E0,-1.1044236E0,-4.967355E-2,-1.0991505E0,4.6622613E-1,7.7701867E-1,-2.7479824E-1,2.6061288E-1,-1.6881233E-1,2.0606433E-1,-2.0543934E-1,-1.6623993E-3,-3.8277668E-1,2.6650825E-1,-9.5694564E-2,-8.4191434E-2,3.4674114E-1,3.788154E-1,8.086587E-2,-2.084239E-2,2.4809147E-1,-2.576505E-1,3.7098038E-1,2.833144E-1,-3.0345795E-1,-9.896517E-2,2.5371796E-1,3.7986383E-1,1.5039876E-1,-3.4305915E-1,3.6724437E-2,-2.263597E-2,2.8108308E-1,-3.7297344E-1,-9.684518E-3,-1.5482393E-1,1.6853294E-1,2.303053E-1,-8.6222865E-2,-3.94947E-1,8.2630165E-2,-2.6676795E-1,-3.6351973E-1,-3.1265375E-1,4.958578E-1,-3.3282E-1,1.9808905E-2,-2.7009148E-2,2.2718863E-1,3.2650352E-1,-8.641748E-2],"categories":[],"categories_nodes":[],"categories_segments":[],"categories_sizes":[],"default_left":[0,0,0,0,0,0,0,0,0,0,0,0,0,0,0,0,0,0,0,0,0,0,0,0,0,0,0,0,0,0,0,0,0,0,0,0,0,0,0,0,0,0,0,0,0,0,0,0,0,0,0,0,0,0,0,0,0,0,0,0,0,0,0,0,0,0,0,0,0,0,0,0,0,0,0,0,0,0,0,0,0,0,0,0,0,0,0,0,0,0,0,0,0,0,0,0,0,0,0],"id":3,"left_children":[1,3,5,7,9,11,13,15,17,19,21,23,25,27,29,31,33,35,-1,37,39,41,43,45,47,49,-1,51,53,-1,-1,55,57,59,61,63,65,67,-1,69,71,73,75,77,79,81,83,85,87,89,91,93,95,97,-1,-1,-1,-1,-1,-1,-1,-1,-1,-1,-1,-1,-1,-1,-1,-1,-1,-1,-1,-1,-1,-1,-1,-1,-1,-1,-1,-1,-1,-1,-1,-1,-1,-1,-1,-1,-1,-1,-1,-1,-1,-1,-1,-1,-1],"loss_changes":[5.1372754E2,1.4532632E2,7.6338745E1,5.2301758E1,8.819428E1,8.050746E1,3.783554E1,8.47816E1,1.0373871E1,6.3566776E1,1.1798542E1,4.1425182E1,6.292595E0,2.0371216E1,6.6193166E0,3.5096848E1,1.9401224E1,6.9844666E0,0E0,3.2161427E1,2.7551575E1,3.6239471E0,4.1764865E0,3.069872E0,4.684969E1,4.3924255E0,0E0,7.263336E0,7.7050724E0,0E0,0E0,2.4655914E1,4.1262943E1,1.6009647E1,2.246513E0,6.914004E0,9.740143E-1,2.0236626E1,0E0,1.997036E1,9.579886E0,4.4545727E0,7.281494E-2,2.2388473E0,1.05304E0,1.9130325E0,1.2262174E0,2.7701702E1,6.4888363E0,1.0503311E0,1.0553103E1,4.293976E0,6.3143384E-1,3.2670093E0,0E0,0E0,0E0,0E0,0E0,0E0,0E0,0E0,0E0,0E0,0E0,0E0,0E0,0E0,0E0,0E0,0E0,0E0,0E0,0E0,0E0,0E0,0E0,0E0,0E0,0E0,0E0,0E0,0E0,0E0,0E0,0E0,0E0,0E0,0E0,0E0,0E0,0E0,0E0,0E0,0E0,0E0,0E0,0E0,0E0],"parents":[2147483647,0,0,1,1,2,2,3,3,4,4,5,5,6,6,7,7,8,8,9,9,10,10,11,11,12,12,13,13,14,14,15,15,16,16,17,17,19,19,20,20,21,21,22,22,23,23,24,24,25,25,27,27,28,28,31,31,32,32,33,33,34,34,35,35,36,36,37,37,39,39,40,40,41,41,42,42,43,43,44,44,45,45,46,46,47,47,48,48,49,49,50,50,51,51,52,52,53,53],"right_children":[2,4,6,8,10,12,14,16,18,20,22,24,26,28,30,32,34,36,-1,38,40,42,44,46,48,50,-1,52,54,-1,-1,56,58,60,62,64,66,68,-1,70,72,74,76,78,80,82,84,86,88,90,92,94,96,98,-1,-1,-1,-1,-1,-1,-1,-1,-1,-1,-1,-1,-1,-1,-1,-1,-1,-1,-1,-1,-1,-1,-1,-1,-1,-1,-1,-1,-1,-1,-1,-1,-1,-1,-1,-1,-1,-1,-1,-1,-1,-1,-1,-1,-1],"split_conditions":[5.2E1,1E0,1E0,1.5E1,1E0,7.083E3,2E0,7.298E3,1.4E1,3.529412E-2,7.547E3,2E0,2.2E1,4E0,6.057E3,2.5E1,1E0,1E-2,-3.482238E-1,8.443E3,2.8E1,2E0,1.6E1,7.2E-1,4E0,1.6666668E-2,2.268473E-1,3.2E1,6.338E3,3.360687E-1,-2.3905683E-1,2E0,1.971E3,3E0,8.592E3,2E0,3E0,1.2E1,-3.9593658E-1,1.7777778E-1,3.7E1,1E0,1.5625E-1,3E0,4E0,2.3E1,1.49E2,1.86E2,1.8E1,1.16E2,3.2E1,9E0,1.9565217E-1,2E0,-2.7479824E-1,2.6061288E-1,-1.6881233E-1,2.0606433E-1,-2.0543934E-1,-1.6623993E-3,-3.8277668E-1,2.6650825E-1,-9.5694564E-2,-8.4191434E-2,3.4674114E-1,3.788154E-1,8.086587E-2,-2.084239E-2,2.4809147E-1,-2.576505E-1,3.7098038E-1,2.833144E-1,-3.0345795E-1,-9.896517E-2,2.5371796E-1,3.7986383E-1,1.5039876E-1,-3.4305915E-1,3.6724437E-2,-2.263597E-2,2.8108308E-1,-3.7297344E-1,-9.684518E-3,-1.5482393E-1,1.6853294E-1,2.303053E-1,-8.6222865E-2,-3.94947E-1,8.2630165E-2,-2.6676795E-1,-3.6351973E-1,-3.1265375E-1,4.958578E-1,-3.3282E-1,1.9808905E-2,-2.7009148E-2,2.2718863E-1,3.2650352E-1,-8.641748E-2],"split_indices":[1,0,0,5,2,11,2,11,9,15,11,4,5,8,11,1,2,16,0,11,19,2,18,15,9,6,0,5,11,0,0,12,11,5,11,2,17,18,0,16,1,7,6,1,8,19,1,1,18,1,19,13,16,9,0,0,0,0,0,0,0,0,0,0,0,0,0,0,0,0,0,0,0,0,0,0,0,0,0,0,0,0,0,0,0,0,0,0,0,0,0,0,0,0,0,0,0,0,0],"split_type":[0,0,0,0,0,0,0,0,0,0,0,0,0,0,0,0,0,0,0,0,0,0,0,0,0,0,0,0,0,0,0,0,0,0,0,0,0,0,0,0,0,0,0,0,0,0,0,0,0,0,0,0,0,0,0,0,0,0,0,0,0,0,0,0,0,0,0,0,0,0,0,0,0,0,0,0,0,0,0,0,0,0,0,0,0,0,0,0,0,0,0,0,0,0,0,0,0,0,0],"sum_hessian":[1.6990024E3,1.0477078E3,6.512947E2,6.785605E2,3.6914722E2,2.7499432E2,3.7630038E2,5.0456363E2,1.7399689E2,2.93151E2,7.59962E1,1.7834464E2,9.664968E1,3.6571405E2,1.0586347E1,4.5015244E2,5.4411182E1,1.7286157E2,1.1353111E0,1.1209918E2,1.8105183E2,6.78095E1,8.186705E0,2.501893E1,1.533257E2,9.536938E1,1.280302E0,3.5490356E2,1.0810478E1,9.146753E0,1.4395927E0,3.6192633E2,8.822612E1,4.5768894E1,8.642285E0,1.1790841E1,1.6107074E2,1.0156232E2,1.0536871E1,1.6650801E2,1.454382E1,3.1500587E1,3.630891E1,5.041213E0,3.1454918E0,2.2792192E1,2.226738E0,1.3354529E2,1.9780407E1,9.114352E1,4.2258654E0,3.5242474E2,2.4788268E0,7.9071846E0,2.9032938E0,3.5011414E2,1.1812192E1,5.1584095E1,3.6642025E1,1.4296097E1,3.14728E1,7.288087E0,1.3541982E0,6.4282866E0,5.3625546E0,1.5945564E2,1.6150979E0,4.3830173E1,5.7732143E1,1.6267506E2,3.8329494E0,1.2324907E1,2.2189126E0,3.0902886E0,2.8410297E1,3.4402023E1,1.9068869E0,3.2183087E0,1.8229042E0,1.4298033E0,1.7156887E0,2.1349318E1,1.4428749E0,1.0848801E0,1.141858E0,1.01246895E2,3.22984E1,1.7160706E1,2.6197004E0,3.3416527E1,5.7726986E1,2.9146256E0,1.3112395E0,3.4939914E2,3.025608E0,1.0887772E0,1.3900495E0,6.1017666E0,1.8054181E0],"tree_param":{"num_deleted":"0","num_feature":"20","num_nodes":"99","size_leaf_vector":"1"}},{"base_weights":[-2.97938E-3,4.5735738E-1,-4.700957E-1,2.9741728E-1,9.7854143E-1,-5.9290856E-1,9.18818E-1,1.2748621E-1,1.0242825E0,9.9728674E-1,-2.6551023E-1,-5.7330854E-2,-8.342052E-1,1.0977993E0,-4.338792E-1,-7.7204466E-2,7.1592295E-1,5.685579E-1,3.6654004E-1,1.0170755E0,-2.486553E-1,-5.852612E-1,4.8867676E-1,-8.995712E-1,-4.418079E-3,1.1912218E0,3.5972115E-1,-6.5500796E-1,1.154099E-1,6.343418E-2,-1.0917522E0,3.799283E-1,1.1764814E0,-7.528896E-1,7.20589E-1,8.4311163E-1,3.539027E-1,-8.051745E-2,-1.0196893E0,-2.67471E-1,1.0072694E0,-9.4823426E-1,-1.2973018E-1,6.4451677E-1,-6.137559E-1,4.638329E-1,3.6634824E-1,-6.9577014E-1,9.2293626E-1,-8.8047373E-1,3.9704315E-2,4.259699E-2,-3.968007E-1,-3.943701E-1,2.761695E-1,2.0013939E-1,-7.587499E-2,3.573884E-1,1.0323307E-1,7.017733E-2,-3.4696347E-1,-3.1785756E-1,2.4788928E-1,2.9839703E-1,1.5357889E-1,-3.303085E-1,5.276214E-2,-3.2455766E-1,2.2507377E-1,1.5966722E-1,-2.6992562E-1,3.8652638E-1,2.7893346E-2,-2.88814E-1,1.717211E-1,-2.4319859E-1,2.7759394E-1,3.3054093E-1,4.397461E-2,-2.7894577E-1,2.5388466E-2,2.469596E-1,-4.1988973E-2,-3.1930957E-2,-2.7734527E-1,3.6189967E-1,3.8579583E-2,-7.715541E-2,-2.980446E-1],"categories":[],"categories_nodes":[],"categories_segments":[],"categories_sizes":[],"default_left":[0,0,0,0,0,0,0,0,0,0,0,0,0,0,0,0,0,0,0,0,0,0,0,0,0,0,0,0,0,0,0,0,0,0,0,0,0,0,0,0,0,0,0,0,0,0,0,0,0,0,0,0,0,0,0,0,0,0,0,0,0,0,0,0,0,0,0,0,0,0,0,0,0,0,0,0,0,0,0,0,0,0,0,0,0,0,0,0,0],"id":4,"left_children":[1,3,5,7,9,11,13,15,17,19,-1,21,23,25,27,29,31,33,-1,35,-1,37,39,41,43,45,47,49,-1,51,53,55,57,59,61,63,-1,65,67,69,71,73,75,77,79,81,-1,83,85,87,-1,-1,-1,-1,-1,-1,-1,-1,-1,-1,-1,-1,-1,-1,-1,-1,-1,-1,-1,-1,-1,-1,-1,-1,-1,-1,-1,-1,-1,-1,-1,-1,-1,-1,-1,-1,-1,-1,-1],"loss_changes":[3.2229932E2,6.263672E1,1.2744423E2,7.139543E1,7.059845E0,8.836238E1,1.5203804E1,5.672496E1,9.169533E0,7.1864624E0,0E0,6.1845303E1,2.557312E1,3.2953262E0,1.668385E0,5.000466E1,1.8358017E1,7.5751104E0,0E0,3.9302216E0,0E0,2.382589E1,4.165007E1,1.6252563E1,1.4408832E1,4.6811676E-1,5.1008725E0,1.275872E0,0E0,3.3758385E1,2.033878E1,1.3207806E1,2.1622467E-1,1.9040346E0,6.8790436E0,3.888298E0,0E0,1.3673889E1,7.250065E0,2.258559E1,1.6024837E1,9.599609E0,2.0252607E1,3.8572845E0,4.2261124E0,8.725874E-1,0E0,3.302096E-1,1.0425749E0,1.11296654E-1,0E0,0E0,0E0,0E0,0E0,0E0,0E0,0E0,0E0,0E0,0E0,0E0,0E0,0E0,0E0,0E0,0E0,0E0,0E0,0E0,0E0,0E0,0E0,0E0,0E0,0E0,0E0,0E0,0E0,0E0,0E0,0E0,0E0,0E0,0E0,0E0,0E0,0E0,0E0],"parents":[2147483647,0,0,1,1,2,2,3,3,4,4,5,5,6,6,7,7,8,8,9,9,11,11,12,12,13,13,14,14,15,15,16,16,17,17,19,19,21,21,22,22,23,23,24,24,25,25,26,26,27,27,29,29,30,30,31,31,32,32,33,33,34,34,35,35,37,37,38,38,39,39,40,40,41,41,42,42,43,43,44,44,45,45,47,47,48,48,49,49],"right_children":[2,4,6,8,10,12,14,16,18,20,-1,22,24,26,28,30,32,34,-1,36,-1,38,40,42,44,46,48,50,-1,52,54,56,58,60,62,64,-1,66,68,70,72,74,76,78,80,82,-1,84,86,88,-1,-1,-1,-1,-1,-1,-1,-1,-1,-1,-1,-1,-1,-1,-1,-1,-1,-1,-1,-1,-1,-1,-1,-1,-1,-1,-1,-1,-1,-1,-1,-1,-1,-1,-1,-1,-1,-1,-1],"split_conditions":[3.2E1,1E0,4E0,1.6666668E-2,2.3E1,2.314E3,6.338E3,1.6E1,2.2E1,9.399E3,-2.6551023E-1,1E0,1E0,1.1E2,1E0,3E0,8.4033616E-2,3E0,3.6654004E-1,2E0,-2.486553E-1,1E0,1E0,1.6666668E-2,1E0,5E0,7.317073E-2,2.2E1,1.154099E-1,2E0,1E0,1.6E1,2E0,6.779661E-2,2.5974026E-2,1E0,3.539027E-1,3E0,2E0,1E0,2E0,3.2E1,2.5E1,1.3529412E-1,6E0,1E0,3.6634824E-1,2E1,2E0,8E0,3.9704315E-2,4.259699E-2,-3.968007E-1,-3.943701E-1,2.761695E-1,2.0013939E-1,-7.587499E-2,3.573884E-1,1.0323307E-1,7.017733E-2,-3.4696347E-1,-3.1785756E-1,2.4788928E-1,2.9839703E-1,1.5357889E-1,-3.303085E-1,5.276214E-2,-3.2455766E-1,2.2507377E-1,1.5966722E-1,-2.6992562E-1,3.8652638E-1,2.7893346E-2,-2.88814E-1,1.717211E-1,-2.4319859E-1,2.7759394E-1,3.3054093E-1,4.397461E-2,-2.7894577E-1,2.5388466E-2,2.469596E-1,-4.1988973E-2,-3.1930957E-2,-2.7734527E-1,3.6189967E-1,3.8579583E-2,-7.715541E-2,-2.980446E-1],"split_indices":[1,2,8,6,9,11,11,18,19,11,0,11,2,1,2,9,16,13,0,2,0,0,5,6,0,4,15,19,0,12,14,1,17,6,16,0,0,13,2,0,9,5,19,15,13,0,0,19,9,4,0,0,0,0,0,0,0,0,0,0,0,0,0,0,0,0,0,0,0,0,0,0,0,0,0,0,0,0,0,0,0,0,0,0,0,0,0,0,0],"split_type":[0,0,0,0,0,0,0,0,0,0,0,0,0,0,0,0,0,0,0,0,0,0,0,0,0,0,0,0,0,0,0,0,0,0,0,0,0,0,0,0,0,0,0,0,0,0,0,0,0,0,0,0,0,0,0,0,0,0,0,0,0,0,0,0,0,0,0,0,0,0,0,0,0,0,0,0,0,0,0,0,0,0,0,0,0,0,0,0,0],"sum_hessian":[1.496852E3,7.539075E2,7.429446E2,5.780784E2,1.7582904E2,6.831142E2,5.983036E1,4.6949283E2,1.0858557E2,1.7453825E2,1.2907866E0,2.1255922E2,4.70555E2,5.3005417E1,6.8249435E0,3.489705E2,1.2052235E2,3.4005222E1,7.4580345E1,1.7310545E2,1.4328002E0,1.08032036E2,1.0452719E2,4.3611612E2,3.4438866E1,4.6505074E1,6.5003467E0,5.530714E0,1.2942296E0,3.0730826E2,4.1662216E1,7.0739876E1,4.978247E1,3.1008198E0,3.0904404E1,8.66185E1,8.648696E1,5.0520145E1,5.7511887E1,4.2720974E1,6.1806217E1,4.0996948E2,2.6146648E1,1.664959E1,1.7789276E1,2.4904463E0,4.4014626E1,2.1798508E0,4.3204956E0,4.207574E0,1.3231401E0,2.9167548E2,1.5632805E1,3.7821186E1,3.8410308E0,4.8620384E1,2.2119488E1,4.8488335E1,1.2941356E0,1.0222398E0,2.07858E0,1.2265441E0,2.967786E1,5.805146E1,2.856704E1,9.482548E0,4.1037598E1,5.5935883E1,1.576006E0,1.893308E1,2.3787893E1,4.6957283E1,1.4848936E1,4.0646613E2,3.50337E0,1.6031467E1,1.0115181E1,8.046872E0,8.602718E0,1.2018674E1,5.770602E0,1.3334409E0,1.1570054E0,1.0191498E0,1.160701E0,2.8021193E0,1.5183765E0,1.1485624E0,3.0590115E0],"tree_param":{"num_deleted":"0","num_feature":"20","num_nodes":"89","size_leaf_vector":"1"}},{"base_weights":[-1.1894827E-3,2.6667807E-1,-5.506278E-1,-5.12669E-1,4.0575287E-1,-2.2896275E-1,-8.250482E-1,-6.813132E-1,5.486338E-1,2.7383983E-1,1.0351336E0,6.0111124E-2,-8.585046E-1,-8.6420107E-1,8.6559176E-1,-9.006957E-1,2.8795611E-2,-2.9122254E-1,9.6276575E-1,1.3045003E-1,8.502336E-1,1.0612242E0,-3.0992675E-1,-6.393133E-1,2.7012542E-1,-9.3584096E-1,-3.2548852E-2,-8.993641E-1,1.0262883E-1,2.8463438E-1,7.7984005E-2,-4.0264082E-1,-1.0635098E0,-2.7116603E-1,3.0094472E-1,-9.1314566E-1,2.6916146E-1,3.2963398E-1,-1.6270522E-2,3.8472527E-1,-3.9616856E-1,8.9098686E-1,-7.525247E-1,1.0901271E0,-1.0420967E-1,-8.4273446E-1,9.011028E-1,4.3248773E-1,-6.725503E-1,-1.135287E-1,-9.86847E-1,-6.718435E-1,3.488642E-1,-9.1948223E-1,2.674195E-1,5.33756E-1,-7.427847E-1,1.1844774E-2,-2.6663804E-1,-3.3137473E-1,5.9530057E-2,-1.5796866E-1,2.8028524E-1,9.280826E-2,-4.1609374E-1,2.0744856E-1,1.7248072E-2,-6.122607E-1,-8.5077465E-2,2.8854132E-1,9.153203E-2,-2.778694E-1,-4.481364E-2,3.2904884E-1,6.682296E-2,2.152314E-1,-2.5898615E-1,-2.8099677E-1,5.4040447E-2,4.8786113E-1,-2.0986626E-1,-2.184599E-1,1.8361962E-1,9.569512E-2,-2.97467E-1,1.9008584E-1,-2.2547135E-1,-2.1173328E-1,-3.228063E-1,1.3392759E-3,-2.5536633E-1,-2.115583E-1,-3.062386E-1,2.1703906E-1,-1.879989E-1,1.2640996E-2,3.0693853E-1,-2.5858378E-1,-7.013962E-2],"categories":[],"categories_nodes":[],"categories_segments":[],"categories_sizes":[],"default_left":[0,0,0,0,0,0,0,0,0,0,0,0,0,0,0,0,0,0,0,0,0,0,0,0,0,0,0,0,0,0,0,0,0,0,0,0,0,0,0,0,0,0,0,0,0,0,0,0,0,0,0,0,0,0,0,0,0,0,0,0,0,0,0,0,0,0,0,0,0,0,0,0,0,0,0,0,0,0,0,0,0,0,0,0,0,0,0,0,0,0,0,0,0,0,0,0,0,0,0],"id":5,"left_children":[1,3,5,7,9,11,13,15,17,19,21,23,25,27,29,31,33,35,37,39,41,43,-1,45,47,49,51,53,55,-1,-1,57,59,61,-1,63,-1,-1,-1,65,67,69,71,73,75,77,79,81,83,85,87,89,-1,91,93,95,97,-1,-1,-1,-1,-1,-1,-1,-1,-1,-1,-1,-1,-1,-1,-1,-1,-1,-1,-1,-1,-1,-1,-1,-1,-1,-1,-1,-1,-1,-1,-1,-1,-1,-1,-1,-1,-1,-1,-1,-1,-1,-1],"loss_changes":[1.9542668E2,9.696002E1,3.8225998E1,2.4646297E1,6.2651268E1,3.6763847E1,1.6267593E1,1.8325298E1,6.9404902E0,5.1796482E1,8.164658E0,2.0617535E1,4.028736E0,7.8996735E0,4.5912743E-2,6.8513947E0,8.658275E0,6.0607786E0,1.8657188E0,6.765619E1,8.830833E0,4.4875336E0,0E0,1.0924185E1,1.6782051E1,2.3236313E0,5.7310038E0,5.449829E0,3.6610267E0,0E0,0E0,5.134682E0,3.694252E0,7.4887495E0,0E0,3.4128613E0,0E0,0E0,0E0,3.413833E1,2.990565E1,4.780571E0,2.430079E-1,4.9279785E-1,3.1485054E0,2.9712067E0,6.0904E0,1.9730858E1,5.4475646E0,2.6317239E0,6.077957E-1,5.926347E-1,0E0,4.0164795E0,2.3014295E0,1.5239745E0,7.306814E-3,0E0,0E0,0E0,0E0,0E0,0E0,0E0,0E0,0E0,0E0,0E0,0E0,0E0,0E0,0E0,0E0,0E0,0E0,0E0,0E0,0E0,0E0,0E0,0E0,0E0,0E0,0E0,0E0,0E0,0E0,0E0,0E0,0E0,0E0,0E0,0E0,0E0,0E0,0E0,0E0,0E0,0E0],"parents":[2147483647,0,0,1,1,2,2,3,3,4,4,5,5,6,6,7,7,8,8,9,9,10,10,11,11,12,12,13,13,14,14,15,15,16,16,17,17,18,18,19,19,20,20,21,21,23,23,24,24,25,25,26,26,27,27,28,28,31,31,32,32,33,33,35,35,39,39,40,40,41,41,42,42,43,43,44,44,45,45,46,46,47,47,48,48,49,49,50,50,51,51,53,53,54,54,55,55,56,56],"right_children":[2,4,6,8,10,12,14,16,18,20,22,24,26,28,30,32,34,36,38,40,42,44,-1,46,48,50,52,54,56,-1,-1,58,60,62,-1,64,-1,-1,-1,66,68,70,72,74,76,78,80,82,84,86,88,90,-1,92,94,96,98,-1,-1,-1,-1,-1,-1,-1,-1,-1,-1,-1,-1,-1,-1,-1,-1,-1,-1,-1,-1,-1,-1,-1,-1,-1,-1,-1,-1,-1,-1,-1,-1,-1,-1,-1,-1,-1,-1,-1,-1,-1,-1],"split_conditions":[6E1,1E0,1E0,1E0,1E0,7.083E3,3.2E1,2E1,5E0,7.2727275E-1,2.3E1,1E0,3.4E1,4E0,3.066E3,9.158879E-2,5.1282052E-2,7.894737E-1,3.3E1,4.632E3,5E0,8.592E3,-3.0992675E-1,6.438E3,3E0,8E0,1.6666668E-2,2E0,1.49E2,2.8463438E-1,7.7984005E-2,3.157E3,2.6E1,8.915663E-1,3.0094472E-1,9E0,2.6916146E-1,3.2963398E-1,-1.6270522E-2,1.8181818E-2,3E0,7.298E3,2.3E1,2E0,4E0,3E0,1.18E2,3E0,1.953E3,1.16E2,1.04E2,3.3653846E-1,3.488642E-1,1.05E2,6.057E3,1.3E1,2.2916667E-1,1.1844774E-2,-2.6663804E-1,-3.3137473E-1,5.9530057E-2,-1.5796866E-1,2.8028524E-1,9.280826E-2,-4.1609374E-1,2.0744856E-1,1.7248072E-2,-6.122607E-1,-8.5077465E-2,2.8854132E-1,9.153203E-2,-2.778694E-1,-4.481364E-2,3.2904884E-1,6.682296E-2,2.152314E-1,-2.5898615E-1,-2.8099677E-1,5.4040447E-2,4.8786113E-1,-2.0986626E-1,-2.184599E-1,1.8361962E-1,9.569512E-2,-2.97467E-1,1.9008584E-1,-2.2547135E-1,-2.1173328E-1,-3.228063E-1,1.3392759E-3,-2.5536633E-1,-2.115583E-1,-3.062386E-1,2.1703906E-1,-1.879989E-1,1.2640996E-2,3.0693853E-1,-2.5858378E-1,-7.013962E-2],"split_indices":[1,7,0,2,3,11,5,19,13,15,9,7,19,8,11,15,6,15,1,11,9,11,0,11,9,18,6,2,1,0,0,11,5,15,0,1,0,0,0,15,13,11,19,17,13,8,1,13,11,1,1,15,0,1,11,18,15,0,0,0,0,0,0,0,0,0,0,0,0,0,0,0,0,0,0,0,0,0,0,0,0,0,0,0,0,0,0,0,0,0,0,0,0,0,0,0,0,0,0],"split_type":[0,0,0,0,0,0,0,0,0,0,0,0,0,0,0,0,0,0,0,0,0,0,0,0,0,0,0,0,0,0,0,0,0,0,0,0,0,0,0,0,0,0,0,0,0,0,0,0,0,0,0,0,0,0,0,0,0,0,0,0,0,0,0,0,0,0,0,0,0,0,0,0,0,0,0,0,0,0,0,0,0,0,0,0,0,0,0,0,0,0,0,0,0,0,0,0,0,0,0],"sum_hessian":[1.3258394E3,8.916487E2,4.3419067E2,1.3461382E2,7.5703485E2,2.0073322E2,2.3345744E2,1.1646518E2,1.8148628E1,6.270462E2,1.2998865E2,1.3818552E2,6.25477E1,2.2865103E2,4.806403E0,8.877154E1,2.7693647E1,6.091633E0,1.2056994E1,5.0311285E2,1.23933365E2,1.288501E2,1.1385562E0,3.1438772E1,1.0674675E2,5.707096E1,5.476739E0,2.2069429E2,7.9567447E0,3.7278016E0,1.0786017E0,2.2725706E1,6.604583E1,2.1726643E1,5.967005E0,4.150989E0,1.940644E0,1.0563779E1,1.4932158E0,3.3947058E2,1.6364229E2,1.2129334E2,2.6400256E0,1.2579498E2,3.055113E0,2.8171476E1,3.267295E0,9.152423E1,1.5222519E1,3.5216248E0,5.3549335E1,3.8537898E0,1.6229491E0,2.1716185E2,3.5324404E0,5.513649E0,2.443096E0,1.238299E1,1.0342717E1,6.4084755E1,1.9610755E0,1.839295E1,3.333693E0,1.2564404E0,2.8945487E0,1.7463878E2,1.648318E2,9.386149E0,1.5425615E2,1.0764076E2,1.3652578E1,1.6338174E0,1.0062083E0,1.2456792E2,1.227065E0,1.493433E0,1.5616801E0,2.5879473E1,2.2920046E0,2.237667E0,1.0296278E0,1.1853689E1,7.967054E1,3.70542E0,1.1517099E1,1.6253135E0,1.8963113E0,1.5044587E1,3.850475E1,1.0122839E0,2.841506E0,7.226793E1,1.4489392E2,2.4656298E0,1.0668108E0,3.2923176E0,2.2213311E0,1.4177277E0,1.0253681E0],"tree_param":{"num_deleted":"0","num_feature":"20","num_nodes":"99","size_leaf_vector":"1"}},{"base_weights":[-1.8991835E-3,3.5965002E-1,-3.0129716E-1,2.6389527E-1,9.693434E-1,-4.238509E-1,8.413618E-1,1.6984117E-1,1.035615E0,1.0520557E0,1.2171278E-1,-9.248008E-2,-6.7163587E-1,-6.7622304E-1,1.0024527E0,2.8089494E-1,-5.291926E-1,1.0668781E0,-1.6275963E-2,3.4036258E-1,7.2892255E-1,-3.9036933E-1,3.1855267E-1,-3.0404636E-1,5.749993E-1,-7.611413E-1,2.7354205E-1,7.490088E-2,-3.2356927E-1,1.0545055E0,-2.4089845E-1,-2.396825E-1,4.8788312E-1,-8.167431E-1,6.5992236E-1,3.2889283E-1,3.3135918E-1,1.7163299E-1,3.1227183E-1,1.2325303E-1,-7.6845163E-1,9.140207E-1,-6.707759E-1,-7.8470427E-1,1.0580893E0,1.2150314E0,-2.1696982E-1,1.0938231E0,4.668113E-1,5.2719407E-2,-1.658059E-1,-1.6337968E-1,2.179566E-1,1.8904628E-1,-7.464085E-2,-2.9208538E-1,2.724705E-1,2.7352807E-1,-1.1814099E-1,2.234582E-1,-7.7849895E-2,-8.773616E-2,1.8296255E-1,-1.7795928E-1,1.0179937E-1,-2.464741E-1,2.0195581E-1,8.818415E-2,3.9065018E-1,-3.074272E-1,1.6426152E-1,-2.5984663E-1,-6.284127E-2,4.0309817E-1,1.4779372E-2,1.1004712E-1,5.70202E-1,-1.7312425E-1,2.6189658E-1,3.3265254E-1,6.079704E-2,-7.492787E-2,2.5361535E-1],"categories":[],"categories_nodes":[],"categories_segments":[],"categories_sizes":[],"default_left":[0,0,0,0,0,0,0,0,0,0,0,0,0,0,0,0,0,0,0,0,0,0,0,0,0,0,0,0,0,0,0,0,0,0,0,0,0,0,0,0,0,0,0,0,0,0,0,0,0,0,0,0,0,0,0,0,0,0,0,0,0,0,0,0,0,0,0,0,0,0,0,0,0,0,0,0,0,0,0,0,0,0,0],"id":6,"left_children":[1,3,5,7,9,11,13,15,17,19,21,23,25,27,29,31,33,35,-1,-1,37,-1,-1,39,41,43,45,-1,-1,47,49,51,53,55,57,-1,59,61,-1,63,65,67,69,71,73,75,77,79,81,-1,-1,-1,-1,-1,-1,-1,-1,-1,-1,-1,-1,-1,-1,-1,-1,-1,-1,-1,-1,-1,-1,-1,-1,-1,-1,-1,-1,-1,-1,-1,-1,-1,-1],"loss_changes":[1.2937453E2,3.135157E1,9.19099E1,3.3886395E1,4.9978714E0,4.847368E1,1.6241451E1,3.2714546E1,1.7882538E0,9.450226E-1,1.15900345E1,3.605244E1,2.8807114E1,2.767599E0,4.0049515E0,3.9193092E1,2.03215E1,7.064781E-1,0E0,0E0,2.6582642E0,0E0,0E0,3.850656E1,2.6584232E1,1.4079254E1,1.4108305E1,0E0,0E0,7.7905655E-1,5.0538397E-1,3.0988367E1,2.7386581E1,1.3612516E1,3.495504E0,0E0,1.0079788E0,1.6129303E0,0E0,1.5941327E1,7.6681404E0,1.13531E1,6.482881E0,1.4141541E1,1.1950207E0,5.362957E0,8.573174E0,4.6548843E-1,1.6338022E0,0E0,0E0,0E0,0E0,0E0,0E0,0E0,0E0,0E0,0E0,0E0,0E0,0E0,0E0,0E0,0E0,0E0,0E0,0E0,0E0,0E0,0E0,0E0,0E0,0E0,0E0,0E0,0E0,0E0,0E0,0E0,0E0,0E0,0E0],"parents":[2147483647,0,0,1,1,2,2,3,3,4,4,5,5,6,6,7,7,8,8,9,9,10,10,11,11,12,12,13,13,14,14,15,15,16,16,17,17,20,20,23,23,24,24,25,25,26,26,29,29,30,30,31,31,32,32,33,33,34,34,36,36,37,37,39,39,40,40,41,41,42,42,43,43,44,44,45,45,46,46,47,47,48,48],"right_children":[2,4,6,8,10,12,14,16,18,20,22,24,26,28,30,32,34,36,-1,-1,38,-1,-1,40,42,44,46,-1,-1,48,50,52,54,56,58,-1,60,62,-1,64,66,68,70,72,74,76,78,80,82,-1,-1,-1,-1,-1,-1,-1,-1,-1,-1,-1,-1,-1,-1,-1,-1,-1,-1,-1,-1,-1,-1,-1,-1,-1,-1,-1,-1,-1,-1,-1,-1,-1,-1],"split_conditions":[2.4E1,3.1E1,1.7E1,2E0,7.419E3,3.478E3,1.754386E-2,2E0,1E0,2.2E1,7.479E3,5E0,2.9E1,5.2E1,8.373E3,2E0,1E0,8.348E3,-1.6275963E-2,3.4036258E-1,2.8E1,-3.9036933E-1,3.1855267E-1,1E0,3E0,2.25E-1,9.090909E-2,7.490088E-2,-3.2356927E-1,1.47E2,1E0,8.84058E-1,1E0,1.6666668E-2,2.9032257E-1,3.2889283E-1,6E0,3.5E1,3.1227183E-1,2E0,4E0,1E0,2.1E1,6E0,7.5E1,5.172414E-2,6.7567565E-2,7E0,8E0,5.2719407E-2,-1.658059E-1,-1.6337968E-1,2.179566E-1,1.8904628E-1,-7.464085E-2,-2.9208538E-1,2.724705E-1,2.7352807E-1,-1.1814099E-1,2.234582E-1,-7.7849895E-2,-8.773616E-2,1.8296255E-1,-1.7795928E-1,1.0179937E-1,-2.464741E-1,2.0195581E-1,8.818415E-2,3.9065018E-1,-3.074272E-1,1.6426152E-1,-2.5984663E-1,-6.284127E-2,4.0309817E-1,1.4779372E-2,1.1004712E-1,5.70202E-1,-1.7312425E-1,2.6189658E-1,3.3265254E-1,6.079704E-2,-7.492787E-2,2.5361535E-1],"split_indices":[1,19,5,2,11,11,16,9,17,18,11,13,19,1,11,5,14,11,0,0,18,0,0,0,9,6,15,0,0,1,9,15,12,6,16,0,4,19,0,4,8,11,19,13,1,15,16,14,4,0,0,0,0,0,0,0,0,0,0,0,0,0,0,0,0,0,0,0,0,0,0,0,0,0,0,0,0,0,0,0,0,0,0],"split_type":[0,0,0,0,0,0,0,0,0,0,0,0,0,0,0,0,0,0,0,0,0,0,0,0,0,0,0,0,0,0,0,0,0,0,0,0,0,0,0,0,0,0,0,0,0,0,0,0,0,0,0,0,0,0,0,0,0,0,0,0,0,0,0,0,0,0,0,0,0,0,0,0,0,0,0,0,0,0,0,0,0,0,0],"sum_hessian":[1.1931766E3,5.403978E2,6.527788E2,4.6828473E2,7.211312E1,5.901161E2,6.2662716E1,4.1849973E2,4.978499E1,6.548216E1,6.630963E0,2.5306175E2,3.3705435E2,5.706439E0,5.6956276E1,3.6164435E2,5.6855366E1,4.8417225E1,1.3677642E0,5.016539E1,1.5316769E1,2.4852645E0,4.1456985E0,1.9256898E2,6.0492764E1,3.080753E2,2.8979057E1,1.8435059E0,3.8629332E0,5.48134E1,2.1428733E0,1.0284079E2,2.588036E2,4.6036118E1,1.0819249E1,4.608273E1,2.3344972E0,6.0535593E0,9.263209E0,1.0067369E2,9.189529E1,4.776142E1,1.2731345E1,3.0469745E2,3.377834E0,9.42042E0,1.9558638E1,5.0569046E1,4.2443547E0,1.1040072E0,1.0388658E0,7.850302E1,2.4337765E1,2.170339E2,4.1769672E1,4.2597725E1,3.4383934E0,8.841E0,1.9782494E0,1.2200369E0,1.1144605E0,3.101655E0,2.9519043E0,2.2922905E1,7.7750786E1,8.904386E1,2.8514278E0,1.9063812E1,2.8697607E1,9.988157E0,2.7431877E0,2.6646164E2,3.8235813E1,2.373931E0,1.003903E0,4.897155E0,4.5232644E0,1.5055127E1,4.5035114E0,4.949073E1,1.0783168E0,1.5848254E0,2.6595292E0],"tree_param":{"num_deleted":"0","num_feature":"20","num_nodes":"83","size_leaf_vector":"1"}},{"base_weights":[2.7737422E-3,1.4569585E-1,-5.948314E-1,3.690806E-2,7.8586596E-1,-2.3987111E-1,-8.562181E-1,2.5111827E-1,-2.6096568E-1,-1.8324213E-1,9.271641E-1,-4.4586957E-1,8.6735696E-1,-9.047169E-1,-1.7360088E-1,1.2366386E-1,7.742452E-1,-9.0593415E-1,-6.142585E-2,2.9888627E-1,-1.0592501E0,9.5406395E-1,-2.491392E-1,-7.4887705E-1,-1.389881E-1,7.849897E-2,1.0555867E0,-3.1994438E-1,-9.677281E-1,6.299462E-1,-5.3956395E-1,4.955544E-3,7.083452E-1,2.533991E-1,1.0218731E0,-5.584939E-1,-1.0377452E0,2.9206058E-1,-4.22891E-1,6.8529344E-1,-7.1049464E-1,-4.5812628E-1,2.0363005E-1,9.867719E-1,-2.0395783E-1,-9.129993E-1,-1.238339E-1,8.785699E-2,-9.1896486E-1,1.3955054E-1,-1.470387E-1,3.5576552E-2,3.5637414E-1,-7.867367E-1,9.7422373E-1,-1.0053142E0,-5.114019E-1,2.4159187E-2,2.7927446E-1,-8.925549E-1,2.1992172E-1,6.789161E-2,-1.2967667E-1,-3.5684716E-2,2.4117416E-1,1.7060971E-1,-1.903371E-1,3.162074E-1,-1.6795222E-2,-2.9797107E-1,1.7559579E-1,-3.2191792E-1,-5.3556304E-2,1.3529281E-1,-2.606032E-1,-1.9075869E-1,1.4111821E-1,4.509478E-2,2.8311622E-1,-4.6687114E-1,8.0709025E-2,1.5601496E-1,3.1058386E-1,1.8831612E-1,-2.4790846E-1,-3.1278294E-1,-1.6608518E-1,1.9846939E-1,-2.609536E-1,-1.13255545E-1,1.18298866E-1,-2.9225278E-1,-7.458531E-2,8.704034E-2,-2.933536E-1,3.6134183E-2,4.0277565E-1,-6.5553606E-2,-3.044317E-1,-2.0563312E-1,5.3098783E-2,-6.619222E-2,-2.986653E-1],"categories":[],"categories_nodes":[],"categories_segments":[],"categories_sizes":[],"default_left":[0,0,0,0,0,0,0,0,0,0,0,0,0,0,0,0,0,0,0,0,0,0,0,0,0,0,0,0,0,0,0,0,0,0,0,0,0,0,0,0,0,0,0,0,0,0,0,0,0,0,0,0,0,0,0,0,0,0,0,0,0,0,0,0,0,0,0,0,0,0,0,0,0,0,0,0,0,0,0,0,0,0,0,0,0,0,0,0,0,0,0,0,0,0,0,0,0,0,0,0,0,0,0],"id":7,"left_children":[1,3,5,7,9,11,13,15,17,19,21,23,25,27,29,31,33,35,37,39,41,43,-1,45,47,49,51,53,55,57,59,61,63,65,67,69,71,73,75,77,79,-1,-1,81,83,85,87,89,91,-1,-1,-1,-1,93,95,97,99,-1,-1,101,-1,-1,-1,-1,-1,-1,-1,-1,-1,-1,-1,-1,-1,-1,-1,-1,-1,-1,-1,-1,-1,-1,-1,-1,-1,-1,-1,-1,-1,-1,-1,-1,-1,-1,-1,-1,-1,-1,-1,-1,-1,-1,-1],"loss_changes":[9.1637535E1,6.0268684E1,1.9007088E1,4.735352E1,1.7384071E1,2.07335E1,3.7781067E0,2.868119E1,3.990495E1,7.425453E0,5.987465E0,6.951171E0,2.0453625E0,3.7709427E0,3.0225096E0,2.4166405E1,1.0622025E1,2.7769585E0,3.0560226E1,5.025515E0,6.0739245E0,4.3180313E0,0E0,3.7799606E0,6.967637E0,1.0726179E0,1.2839394E0,8.176488E0,1.1920624E0,4.7334695E-1,3.71197E0,2.8208843E1,4.741665E0,8.343251E0,2.0291176E0,1.1681974E1,1.3853302E0,2.2715984E1,2.2782902E1,1.091929E0,3.4941258E0,0E0,0E0,1.8585815E0,2.4931495E0,8.155422E-1,5.8775916E0,4.5797224E0,8.560705E-2,0E0,0E0,0E0,0E0,2.2527604E0,1.0013793E0,4.544754E-1,1.2721536E0,0E0,0E0,1.8030453E-1,0E0,0E0,0E0,0E0,0E0,0E0,0E0,0E0,0E0,0E0,0E0,0E0,0E0,0E0,0E0,0E0,0E0,0E0,0E0,0E0,0E0,0E0,0E0,0E0,0E0,0E0,0E0,0E0,0E0,0E0,0E0,0E0,0E0,0E0,0E0,0E0,0E0,0E0,0E0,0E0,0E0,0E0,0E0],"parents":[2147483647,0,0,1,1,2,2,3,3,4,4,5,5,6,6,7,7,8,8,9,9,10,10,11,11,12,12,13,13,14,14,15,15,16,16,17,17,18,18,19,19,20,20,21,21,23,23,24,24,25,25,26,26,27,27,28,28,29,29,30,30,31,31,32,32,33,33,34,34,35,35,36,36,37,37,38,38,39,39,40,40,43,43,44,44,45,45,46,46,47,47,48,48,53,53,54,54,55,55,56,56,59,59],"right_children":[2,4,6,8,10,12,14,16,18,20,22,24,26,28,30,32,34,36,38,40,42,44,-1,46,48,50,52,54,56,58,60,62,64,66,68,70,72,74,76,78,80,-1,-1,82,84,86,88,90,92,-1,-1,-1,-1,94,96,98,100,-1,-1,102,-1,-1,-1,-1,-1,-1,-1,-1,-1,-1,-1,-1,-1,-1,-1,-1,-1,-1,-1,-1,-1,-1,-1,-1,-1,-1,-1,-1,-1,-1,-1,-1,-1,-1,-1,-1,-1,-1,-1,-1,-1,-1,-1],"split_conditions":[1.04E2,1.5E1,4.478E3,1E0,1E-2,6.666667E-1,1E0,1.6666668E-2,3E0,5.639E3,2.3E1,4E0,1E0,1.18E2,1.6E1,1E0,2.1E1,1.129E3,1E0,2.2E1,2E0,9.202E3,-2.491392E-1,2.3E1,3E0,8.666667E-1,1.23E2,1.16E2,6.451613E-1,3E0,1.7E1,8E0,1E0,2.563E3,1E0,1E0,3E0,7.836E3,1E0,1.7E1,1.2E1,-4.5812628E-1,2.0363005E-1,1E0,4E0,1.4767933E-1,1E0,1E0,4.4705883E-1,1.3955054E-1,-1.470387E-1,3.5576552E-2,3.5637414E-1,8E0,2.1E1,2E0,1.8E1,2.4159187E-2,2.7927446E-1,7E0,2.1992172E-1,6.789161E-2,-1.2967667E-1,-3.5684716E-2,2.4117416E-1,1.7060971E-1,-1.903371E-1,3.162074E-1,-1.6795222E-2,-2.9797107E-1,1.7559579E-1,-3.2191792E-1,-5.3556304E-2,1.3529281E-1,-2.606032E-1,-1.9075869E-1,1.4111821E-1,4.509478E-2,2.8311622E-1,-4.6687114E-1,8.0709025E-2,1.5601496E-1,3.1058386E-1,1.8831612E-1,-2.4790846E-1,-3.1278294E-1,-1.6608518E-1,1.9846939E-1,-2.609536E-1,-1.13255545E-1,1.18298866E-1,-2.9225278E-1,-7.458531E-2,8.704034E-2,-2.933536E-1,3.6134183E-2,4.0277565E-1,-6.5553606E-2,-3.044317E-1,-2.0563312E-1,5.3098783E-2,-6.619222E-2,-2.986653E-1],"split_indices":[1,5,11,0,16,15,2,6,4,11,9,5,11,1,19,2,19,11,9,5,2,11,0,19,9,15,1,1,15,8,18,5,7,11,12,11,8,11,2,18,19,0,0,7,13,15,0,11,15,0,0,0,0,18,19,4,18,0,0,5,0,0,0,0,0,0,0,0,0,0,0,0,0,0,0,0,0,0,0,0,0,0,0,0,0,0,0,0,0,0,0,0,0,0,0,0,0,0,0,0,0,0,0],"split_type":[0,0,0,0,0,0,0,0,0,0,0,0,0,0,0,0,0,0,0,0,0,0,0,0,0,0,0,0,0,0,0,0,0,0,0,0,0,0,0,0,0,0,0,0,0,0,0,0,0,0,0,0,0,0,0,0,0,0,0,0,0,0,0,0,0,0,0,0,0,0,0,0,0,0,0,0,0,0,0,0,0,0,0,0,0,0,0,0,0,0,0,0,0,0,0,0,0,0,0,0,0,0,0],"sum_hessian":[1.0708864E3,8.6481506E2,2.0607132E2,7.401028E2,1.2471227E2,8.8206085E1,1.1786523E2,4.3060114E2,3.0950162E2,1.5831741E1,1.0888053E2,7.487331E1,1.3332779E1,1.0974282E2,8.122409E0,3.4723688E2,8.336425E1,7.2292366E1,2.3720926E2,1.0636526E1,5.195215E0,1.0768957E2,1.190964E0,3.6949738E1,3.7923573E1,2.8414576E0,1.0491321E1,1.1266074E1,9.8476746E1,2.3159428E0,5.806466E0,2.8947336E2,5.7763527E1,2.7514717E1,5.5849537E1,2.1323345E1,5.0969025E1,1.2002531E2,1.1718395E2,7.9241214E0,2.7124047E0,4.1889896E0,1.0062253E0,1.0487528E2,2.8142865E0,2.8900433E1,8.049302E0,3.0066515E1,7.857057E0,1.7996404E0,1.0418172E0,1.5329313E0,8.958389E0,8.567839E0,2.6982353E0,8.987126E1,8.605482E0,1.2682805E0,1.0476623E0,4.779448E0,1.0270182E0,1.9249832E2,9.6975044E1,5.956466E0,5.1807064E1,2.0569458E1,6.945259E0,5.4253315E1,1.5962186E0,1.5546168E1,5.777177E0,4.8717834E1,2.2511902E0,1.0610944E2,1.3915864E1,9.485694E1,2.2327011E1,3.0962155E0,4.8279057E0,1.1396441E0,1.5727606E0,1.0977265E1,9.389801E1,1.2009678E0,1.6133187E0,1.9842981E1,9.057453E0,3.9762821E0,4.07302E0,1.1846265E1,1.8220251E1,6.840426E0,1.0166309E0,1.2132378E0,7.354601E0,1.2132307E0,1.4850045E0,1.353797E0,8.851747E1,6.872306E0,1.7331756E0,1.0528971E0,3.726551E0],"tree_param":{"num_deleted":"0","num_feature":"20","num_nodes":"103","size_leaf_vector":"1"}},{"base_weights":[-1.1358427E-5,-5.3363085E-1,1.3284779E-1,-6.202789E-1,4.165555E-1,4.3044202E-2,8.069407E-1,-3.1706178E-1,-8.69453E-1,-4.73202E-1,8.558818E-1,-4.5630682E-2,6.3700724E-1,4.6279198E-1,9.682471E-1,-9.244597E-1,9.34938E-2,-8.964132E-1,1.700254E-1,2.2531544E-1,-9.785049E-1,-1.7859402E-1,3.2619342E-1,-1.0896978E-1,9.692122E-1,2.9434368E-1,9.0763247E-1,5.596827E-1,-2.4363858E-1,1.0273634E0,-4.6472114E-1,-6.33556E-1,-1.484168E0,-1.7236881E-1,1.1398504E0,1.8744273E-1,-9.2423904E-1,-1.2983902E0,3.9010043E-3,-1.3656463E-2,-7.507791E-1,1.0278691E0,2.5915766E-1,-1.4211549E-1,7.353671E-1,9.852979E-1,8.284776E-2,2.8724188E-1,9.597814E-1,1.0617522E0,2.9703566E-1,3.7440706E-2,-2.4240045E-1,1.4382242E-1,-2.1335477E-1,-4.7108307E-1,-1.1212271E-1,1.4477472E-1,-2.1153611E-1,4.09133E-1,-1.1920612E-1,-7.898957E-2,1.7635289E-1,-2.8919604E-1,-1.5257734E-1,-1.5946504E-1,-4.9197182E-1,1.2936863E-2,-3.232263E-1,2.6355612E-1,-2.7028492E-1,3.142475E-1,7.290453E-2,-1.3811603E-1,2.503708E-1,6.8772934E-2,-1.7236562E-1,-3.1238957E-3,2.418683E-1,3.1664637E-1,8.3249405E-2,2.3240839E-1,-1.6818075E-1,2.48031E-1,-6.554324E-2,3.433678E-2,3.4712017E-1,1.4972939E-1,3.346179E-1,-6.8159886E-2,2.0372184E-1],"categories":[],"categories_nodes":[],"categories_segments":[],"categories_sizes":[],"default_left":[0,0,0,0,0,0,0,0,0,0,0,0,0,0,0,0,0,0,0,0,0,0,0,0,0,0,0,0,0,0,0,0,0,0,0,0,0,0,0,0,0,0,0,0,0,0,0,0,0,0,0,0,0,0,0,0,0,0,0,0,0,0,0,0,0,0,0,0,0,0,0,0,0,0,0,0,0,0,0,0,0,0,0,0,0,0,0,0,0,0,0],"id":8,"left_children":[1,3,5,7,9,11,13,15,17,19,21,23,25,27,29,31,33,35,-1,-1,37,-1,-1,39,41,43,45,47,-1,49,51,53,55,57,59,61,63,65,-1,67,69,71,73,75,77,79,81,83,85,87,89,-1,-1,-1,-1,-1,-1,-1,-1,-1,-1,-1,-1,-1,-1,-1,-1,-1,-1,-1,-1,-1,-1,-1,-1,-1,-1,-1,-1,-1,-1,-1,-1,-1,-1,-1,-1,-1,-1,-1,-1],"loss_changes":[6.918785E1,1.6275322E1,4.726575E1,1.3224693E1,6.9939194E0,3.6400658E1,4.648052E0,2.0578667E1,4.283638E0,4.5800514E0,4.55669E0,3.8788227E1,8.057613E0,4.3100886E0,5.6947136E0,4.4709873E0,1.408949E1,3.0715408E0,0E0,0E0,1.5500698E0,0E0,0E0,3.4695396E1,1.2102661E0,8.0144615E0,3.100605E0,2.9507513E0,0E0,1.1779556E0,7.3399615E-1,2.3810387E0,4.2869186E-1,1.4538626E1,4.0700626E0,7.3894733E-1,1.0604477E0,8.806229E-2,0E0,2.9944126E1,1.8735977E1,2.4460602E-1,2.0579429E0,3.5830042E0,1.0971155E0,1.9581642E0,2.8235703E0,5.3746147E0,1.79601E0,1.1454582E0,9.678696E-1,0E0,0E0,0E0,0E0,0E0,0E0,0E0,0E0,0E0,0E0,0E0,0E0,0E0,0E0,0E0,0E0,0E0,0E0,0E0,0E0,0E0,0E0,0E0,0E0,0E0,0E0,0E0,0E0,0E0,0E0,0E0,0E0,0E0,0E0,0E0,0E0,0E0,0E0,0E0,0E0],"parents":[2147483647,0,0,1,1,2,2,3,3,4,4,5,5,6,6,7,7,8,8,9,9,10,10,11,11,12,12,13,13,14,14,15,15,16,16,17,17,20,20,23,23,24,24,25,25,26,26,27,27,29,29,30,30,31,31,32,32,33,33,34,34,35,35,36,36,37,37,39,39,40,40,41,41,42,42,43,43,44,44,45,45,46,46,47,47,48,48,49,49,50,50],"right_children":[2,4,6,8,10,12,14,16,18,20,22,24,26,28,30,32,34,36,-1,-1,38,-1,-1,40,42,44,46,48,-1,50,52,54,56,58,60,62,64,66,-1,68,70,72,74,76,78,80,82,84,86,88,90,-1,-1,-1,-1,-1,-1,-1,-1,-1,-1,-1,-1,-1,-1,-1,-1,-1,-1,-1,-1,-1,-1,-1,-1,-1,-1,-1,-1,-1,-1,-1,-1,-1,-1,-1,-1,-1,-1,-1,-1],"split_conditions":[1E0,8.915663E-1,1E0,3.691E3,1.6E1,1.6666668E-2,1.1E1,7.2E1,2E0,1.2E1,9.5E-1,2E0,2.3E1,7.38E3,1E1,3.0769232E-1,5E0,3E0,1.700254E-1,2.2531544E-1,1.8E1,-1.7859402E-1,3.2619342E-1,3E0,4E0,1.3793103E-1,1.04E2,5E0,-2.4363858E-1,8.348E3,1.724138E-1,8E0,6.9767445E-2,1.35E3,3E0,3E0,2.2E1,7.446E3,3.9010043E-3,2E0,6E0,2.78E2,1.1E1,2.3E1,4.964539E-2,7.298E3,1.556E3,1.2E1,9E0,7E0,1.6E1,3.7440706E-2,-2.4240045E-1,1.4382242E-1,-2.1335477E-1,-4.7108307E-1,-1.1212271E-1,1.4477472E-1,-2.1153611E-1,4.09133E-1,-1.1920612E-1,-7.898957E-2,1.7635289E-1,-2.8919604E-1,-1.5257734E-1,-1.5946504E-1,-4.9197182E-1,1.2936863E-2,-3.232263E-1,2.6355612E-1,-2.7028492E-1,3.142475E-1,7.290453E-2,-1.3811603E-1,2.503708E-1,6.8772934E-2,-1.7236562E-1,-3.1238957E-3,2.418683E-1,3.1664637E-1,8.3249405E-2,2.3240839E-1,-1.6818075E-1,2.48031E-1,-6.554324E-2,3.433678E-2,3.4712017E-1,1.4972939E-1,3.346179E-1,-6.8159886E-2,2.0372184E-1],"split_indices":[7,15,10,11,19,6,5,11,2,19,15,2,19,11,14,15,13,1,0,0,1,0,0,9,9,6,1,13,0,11,16,19,16,11,9,8,19,11,0,12,5,1,5,1,16,11,11,1,18,4,5,0,0,0,0,0,0,0,0,0,0,0,0,0,0,0,0,0,0,0,0,0,0,0,0,0,0,0,0,0,0,0,0,0,0,0,0,0,0,0,0],"split_type":[0,0,0,0,0,0,0,0,0,0,0,0,0,0,0,0,0,0,0,0,0,0,0,0,0,0,0,0,0,0,0,0,0,0,0,0,0,0,0,0,0,0,0,0,0,0,0,0,0,0,0,0,0,0,0,0,0,0,0,0,0,0,0,0,0,0,0,0,0,0,0,0,0,0,0,0,0,0,0,0,0,0,0,0,0,0,0,0,0,0,0],"sum_hessian":[9.739031E2,1.9354132E2,7.8036176E2,1.776853E2,1.5856021E1,6.8956134E2,9.080045E1,8.117583E1,9.6509476E1,5.2156916E0,1.0640329E1,6.0079034E2,8.877098E1,3.0211975E1,6.058848E1,3.2234562E1,4.8941265E1,9.510011E1,1.4093583E0,1.3817161E0,3.8339756E0,1.2472197E0,9.393109E0,5.6633636E2,3.4453964E1,4.0093075E1,4.8677906E1,2.8599491E1,1.6124842E0,5.8459805E1,2.1286757E0,2.2613384E1,9.621179E0,3.9691544E1,9.249723E0,2.2368083E0,9.2863304E1,2.6647506E0,1.169225E0,4.9399573E2,7.234065E1,3.1411499E1,3.0424633E0,2.0491453E1,1.960162E1,4.4310787E1,4.367118E0,1.8036055E1,1.0563437E1,5.5397514E1,3.06229E0,1.0175884E0,1.1110872E0,1.1369299E0,2.1476454E1,8.544469E0,1.0767095E0,1.7846132E1,2.184541E1,8.172105E0,1.0776187E0,1.2133354E0,1.0234728E0,8.355393E1,9.309374E0,1.6087981E0,1.0559525E0,4.6987518E2,2.412053E1,5.695565E0,6.664508E1,3.0318851E1,1.0926487E0,1.440739E0,1.6017244E0,1.1277061E1,9.214392E0,1.7748663E0,1.7826754E1,3.9866177E1,4.444609E0,2.0061293E0,2.3609884E0,8.419184E0,9.61687E0,2.2978435E0,8.265594E0,5.718538E0,4.9678978E1,1.4617523E0,1.6005378E0],"tree_param":{"num_deleted":"0","num_feature":"20","num_nodes":"91","size_leaf_vector":"1"}},{"base_weights":[2.2825405E-3,3.0429575E-1,-1.7780112E-1,3.5875943E-1,-7.264015E-1,-2.8082886E-1,8.448696E-1,3.825016E-1,-5.6466264E-1,-9.206811E-1,1.4514008E-1,-4.6906623E-1,2.1030155E-1,9.3915224E-1,-4.5855263E-1,-4.0336747E-2,4.843205E-1,-1.0782214E0,6.166256E-2,-5.248056E-2,-6.910866E-1,5.5933595E-1,-5.087917E-1,1.0436255E0,7.670212E-2,-2.3247238E-1,6.046697E-2,-6.214055E-1,3.516389E-1,8.7768835E-1,2.782613E-1,-3.4891418E-1,-8.610559E-2,-4.829031E-1,4.6003422E-1,-8.206047E-1,-1.9428223E-1,8.3179456E-1,-2.0882103E-1,-6.6974914E-1,7.028807E-1,4.830319E-2,3.2253492E-1,-4.1242743E-1,2.4606757E-1,-2.6207057E-1,2.4914007E-1,1.395848E-1,-4.081504E-1,1.0305052E-1,2.8763098E-1,4.724656E-2,2.2985783E-1,-3.9767746E-2,-2.8344053E-1,3.5899854E-1,-1.1064301E-2,-1.9535622E-1,-3.1712443E-1,-1.4485633E-1,1.3353944E-1,6.5542266E-2,3.0500785E-1,-1.8794776E-1,3.2576644E-1,-2.2661541E-1,2.5848195E-1,1.8816803E-2,2.6427928E-1,-2.306391E-1,3.0941077E-2],"categories":[],"categories_nodes":[],"categories_segments":[],"categories_sizes":[],"default_left":[0,0,0,0,0,0,0,0,0,0,0,0,0,0,0,0,0,0,0,0,0,0,0,0,0,0,0,0,0,0,0,0,0,0,0,0,0,0,0,0,0,0,0,0,0,0,0,0,0,0,0,0,0,0,0,0,0,0,0,0,0,0,0,0,0,0,0,0,0,0,0],"id":9,"left_children":[1,3,5,7,9,11,13,15,-1,17,-1,19,21,23,25,27,29,31,-1,33,35,37,39,41,43,-1,-1,45,47,49,51,-1,-1,53,55,57,59,61,63,65,67,-1,-1,69,-1,-1,-1,-1,-1,-1,-1,-1,-1,-1,-1,-1,-1,-1,-1,-1,-1,-1,-1,-1,-1,-1,-1,-1,-1,-1,-1],"loss_changes":[4.941222E1,1.93112E1,6.0205585E1,1.790556E1,4.5278425E0,4.7970264E1,6.862793E0,1.3815823E1,0E0,2.9372826E0,0E0,3.461535E1,3.6468433E1,4.347431E0,1.033808E0,1.4593179E1,2.0695847E1,5.7811356E-1,0E0,2.9194315E1,1.5561111E1,2.0586382E1,9.760499E0,1.0428963E0,2.6616645E0,0E0,0E0,1.01655855E1,8.090432E0,3.4969864E0,9.955901E0,0E0,0E0,1.1505369E1,2.2175901E1,7.063217E0,9.778932E0,7.9651337E0,1.4921697E1,6.2320213E0,6.370013E-1,0E0,0E0,9.095588E-1,0E0,0E0,0E0,0E0,0E0,0E0,0E0,0E0,0E0,0E0,0E0,0E0,0E0,0E0,0E0,0E0,0E0,0E0,0E0,0E0,0E0,0E0,0E0,0E0,0E0,0E0,0E0],"parents":[2147483647,0,0,1,1,2,2,3,3,4,4,5,5,6,6,7,7,9,9,11,11,12,12,13,13,14,14,15,15,16,16,17,17,19,19,20,20,21,21,22,22,23,23,24,24,27,27,28,28,29,29,30,30,33,33,34,34,35,35,36,36,37,37,38,38,39,39,40,40,43,43],"right_children":[2,4,6,8,10,12,14,16,-1,18,-1,20,22,24,26,28,30,32,-1,34,36,38,40,42,44,-1,-1,46,48,50,52,-1,-1,54,56,58,60,62,64,66,68,-1,-1,70,-1,-1,-1,-1,-1,-1,-1,-1,-1,-1,-1,-1,-1,-1,-1,-1,-1,-1,-1,-1,-1,-1,-1,-1,-1,-1,-1],"split_conditions":[1.5E1,8.443E3,4E0,2E0,1.2589929E-1,5E0,8.317E3,1E0,-5.6466264E-1,1.5E1,1.4514008E-1,1.953E3,2E0,1.1E2,5E0,1E0,2.345E3,6E0,6.166256E-2,1E0,1.9607844E-2,6.67E3,2E0,1.7E1,7E0,-2.3247238E-1,6.046697E-2,1E0,1.4E1,1E0,8.549618E-1,-3.4891418E-1,-8.610559E-2,1E0,8.85E2,7E0,2.3E1,1E0,5.272727E-1,3.4E1,7E0,4.830319E-2,3.2253492E-1,1.2E1,2.4606757E-1,-2.6207057E-1,2.4914007E-1,1.395848E-1,-4.081504E-1,1.0305052E-1,2.8763098E-1,4.724656E-2,2.2985783E-1,-3.9767746E-2,-2.8344053E-1,3.5899854E-1,-1.1064301E-2,-1.9535622E-1,-3.1712443E-1,-1.4485633E-1,1.3353944E-1,6.5542266E-2,3.0500785E-1,-1.8794776E-1,3.2576644E-1,-2.2661541E-1,2.5848195E-1,1.8816803E-2,2.6427928E-1,-2.306391E-1,3.0941077E-2],"split_indices":[1,11,8,17,15,13,11,11,0,18,0,11,9,1,8,1,11,1,0,11,16,11,2,1,13,0,0,3,1,7,15,0,0,0,11,5,19,11,15,19,13,0,0,5,0,0,0,0,0,0,0,0,0,0,0,0,0,0,0,0,0,0,0,0,0,0,0,0,0,0,0],"split_type":[0,0,0,0,0,0,0,0,0,0,0,0,0,0,0,0,0,0,0,0,0,0,0,0,0,0,0,0,0,0,0,0,0,0,0,0,0,0,0,0,0,0,0,0,0,0,0,0,0,0,0,0,0,0,0,0,0,0,0,0,0,0,0,0,0,0,0,0,0,0,0],"sum_hessian":[9.065244E2,3.3836774E2,5.681567E2,3.2200446E2,1.63633E1,5.1681604E2,5.1340626E1,3.194493E2,2.555127E0,1.4305932E1,2.0573678E0,3.7365057E2,1.431655E2,4.8138046E1,3.2025785E0,6.21119E1,2.573374E2,1.2587734E1,1.7181981E0,1.3033472E2,2.4331586E2,9.653256E1,4.663293E1,4.27495E1,5.3885474E0,2.0474405E0,1.1551381E0,2.4785019E1,3.7326885E1,8.734192E1,1.699955E2,1.09444E1,1.6433349E0,7.087224E1,5.9462475E1,1.9248325E2,5.083261E1,7.119682E1,2.5335741E1,4.155946E1,5.0734696E0,1.6833123E0,4.1066185E1,3.5189192E0,1.8696282E0,2.1456707E1,3.3283114E0,3.568643E1,1.6404504E0,1.22002125E1,7.514171E1,1.3732707E2,3.2668423E1,4.103485E1,2.9837393E1,2.338635E1,3.6076122E1,1.1432902E2,7.815423E1,3.51941E1,1.5638513E1,1.6997272E1,5.419955E1,1.9546259E1,5.7894835E0,3.9838367E1,1.7210944E0,1.3983054E0,3.6751642E0,1.7902695E0,1.7286497E0],"tree_param":{"num_deleted":"0","num_feature":"20","num_nodes":"71","size_leaf_vector":"1"}},{"base_weights":[2.6658592E-3,-4.879559E-2,8.832413E-1,-9.717367E-2,8.25424E-1,1.0241098E0,8.222235E-2,7.0382036E-2,-3.2146224E-1,1.0658076E0,5.044021E-1,1.0343315E-1,1.0442066E0,2.2365488E-1,-4.270966E-1,-5.300342E-1,1.5182588E-1,-8.130682E-1,-1.3190769E-1,3.2626274E-1,9.278576E-2,7.337021E-1,-3.9719096E-1,1.0269789E-1,3.1894732E-1,-2.6082572E-1,8.928974E-2,-9.18981E-1,8.871005E-1,2.6428154E-1,-4.2025742E-1,-8.8787115E-1,6.8283063E-1,4.4071585E-1,-3.1625095E-1,8.4447306E-1,-2.0150378E-2,1.6702E-1,-9.60045E-1,-2.9972133E-1,2.711329E-1,3.0076045E-1,-4.2268865E-2,1.08001366E-1,-9.9957146E-2,-1.8973355E-1,1.547999E-1,-6.44022E-2,-2.8156862E-1,-1.9764976E-1,4.883279E-1,-7.9801425E-2,1.83808E-1,-1.15121156E-1,2.3451687E-1,2.5561033E-2,2.871853E-1,-4.448928E-2,-3.9080533E-1],"categories":[],"categories_nodes":[],"categories_segments":[],"categories_sizes":[],"default_left":[0,0,0,0,0,0,0,0,0,0,0,0,0,0,0,0,0,0,0,0,0,0,0,0,0,0,0,0,0,0,0,0,0,0,0,0,0,0,0,0,0,0,0,0,0,0,0,0,0,0,0,0,0,0,0,0,0,0,0],"id":10,"left_children":[1,3,5,7,9,11,13,15,17,19,21,-1,23,-1,25,27,29,31,33,-1,-1,35,37,-1,-1,-1,-1,39,41,43,45,47,49,51,53,55,-1,-1,57,-1,-1,-1,-1,-1,-1,-1,-1,-1,-1,-1,-1,-1,-1,-1,-1,-1,-1,-1,-1],"loss_changes":[3.7723225E1,3.334539E1,5.102173E0,2.8065098E1,2.6532383E0,1.724472E-1,3.0080268E0,2.1006546E1,2.9643055E1,3.7641525E-2,4.3441205E0,0E0,1.3336182E-1,0E0,1.9062202E0,2.91115E1,2.440343E1,1.0525951E1,2.4587652E1,0E0,0E0,1.4743395E0,3.0169694E0,0E0,0E0,0E0,0E0,6.8550644E0,1.5135517E0,1.8202856E1,1.2726359E1,2.694458E0,7.1414104E0,7.0689793E0,1.3325411E1,1.1271696E0,0E0,0E0,7.176771E-1,0E0,0E0,0E0,0E0,0E0,0E0,0E0,0E0,0E0,0E0,0E0,0E0,0E0,0E0,0E0,0E0,0E0,0E0,0E0,0E0],"parents":[2147483647,0,0,1,1,2,2,3,3,4,4,5,5,6,6,7,7,8,8,9,9,10,10,12,12,14,14,15,15,16,16,17,17,18,18,21,21,22,22,27,27,28,28,29,29,30,30,31,31,32,32,33,33,34,34,35,35,38,38],"right_children":[2,4,6,8,10,12,14,16,18,20,22,-1,24,-1,26,28,30,32,34,-1,-1,36,38,-1,-1,-1,-1,40,42,44,46,48,50,52,54,56,-1,-1,58,-1,-1,-1,-1,-1,-1,-1,-1,-1,-1,-1,-1,-1,-1,-1,-1,-1,-1,-1,-1],"split_conditions":[3.5E1,2E0,5.3E1,1E0,1.6129032E-2,1E0,1.7E1,3E0,1E0,5E0,5.67E3,1.0343315E-1,8E0,2.2365488E-1,6E0,9.1463417E-1,2E0,4E0,7E0,3.2626274E-1,9.278576E-2,4E0,3E0,1.0269789E-1,3.1894732E-1,-2.6082572E-1,8.928974E-2,7.587E3,3.1E1,1E0,1.4E1,3E0,3E0,1E0,1.7777778E-1,7E0,-2.0150378E-2,1.6702E-1,1E0,-2.9972133E-1,2.711329E-1,3.0076045E-1,-4.2268865E-2,1.08001366E-1,-9.9957146E-2,-1.8973355E-1,1.547999E-1,-6.44022E-2,-2.8156862E-1,-1.9764976E-1,4.883279E-1,-7.9801425E-2,1.83808E-1,-1.15121156E-1,2.3451687E-1,2.5561033E-2,2.871853E-1,-4.448928E-2,-3.9080533E-1],"split_indices":[19,2,1,0,16,7,18,13,5,9,11,0,18,0,4,15,9,4,5,0,0,9,8,0,0,0,0,11,1,12,5,13,8,7,16,4,0,0,0,0,0,0,0,0,0,0,0,0,0,0,0,0,0,0,0,0,0,0,0],"split_type":[0,0,0,0,0,0,0,0,0,0,0,0,0,0,0,0,0,0,0,0,0,0,0,0,0,0,0,0,0,0,0,0,0,0,0,0,0,0,0,0,0,0,0,0,0,0,0,0,0,0,0,0,0,0,0,0,0,0,0],"sum_hessian":[8.305028E2,7.855399E2,4.4962914E1,7.451909E2,4.034897E1,3.8001415E1,6.961501E0,4.269342E2,3.1825674E2,2.174563E1,1.8603338E1,1.6135696E0,3.6387844E1,2.8222678E0,4.1392336E0,5.033668E1,3.7659753E2,8.764968E1,2.3060706E2,2.0712994E1,1.0326368E0,1.4979783E1,3.6235561E0,1.4578559E0,3.492999E1,2.4464498E0,1.6927838E0,3.9772297E1,1.05643835E1,3.1517996E2,6.1417576E1,8.3862564E1,3.7871137E0,5.5820786E1,1.7478627E2,1.3111802E1,1.8679805E0,1.3486835E0,2.2748725E0,3.853117E1,1.2411284E0,9.520132E0,1.0442516E0,2.7199945E2,4.3180496E1,5.033455E1,1.1083027E1,6.2391257E0,7.7623436E1,1.6901354E0,2.0969784E0,1.0818153E1,4.5002632E1,1.6527806E2,9.5082035E0,1.9231861E0,1.1188616E1,1.1004962E0,1.1743765E0],"tree_param":{"num_deleted":"0","num_feature":"20","num_nodes":"59","size_leaf_vector":"1"}},{"base_weights":[4.40079E-3,-3.9300194E-1,9.38981E-2,-5.324661E-1,6.5019466E-2,1.733093E-1,-3.2662264E-1,-6.6985524E-1,-1.5016943E-1,5.4343504E-1,-5.011778E-1,1.0780258E-1,6.929225E-1,-5.3996545E-1,3.0558282E-1,-5.289893E-1,-1.0154505E0,4.0552217E-1,-5.97719E-1,7.243842E-1,-2.1716793E-1,-1.056317E-2,-1.0404328E0,2.139772E-2,5.664098E-1,8.046269E-1,-9.599266E-1,-5.875355E-1,2.8274924E-1,-3.111486E-1,8.300597E-1,-2.4899839E-1,-8.9031833E-1,-1.2088754E0,1.6673519E-1,6.816524E-1,-1.7529854E-1,-7.858827E-1,2.9103744E-1,3.620453E-1,4.8770523E-1,-6.775631E-1,7.057908E-1,-3.4430397E-1,-6.694901E-2,2.0681714E-1,-2.6495457E-1,8.3009887E-1,1.8226186E-2,1.5515193E-1,1.0305067E0,-4.8088223E-1,-4.5038044E-2,-3.76224E-1,-9.5979923E-1,-5.300093E-1,2.3133317E-1,9.570498E-1,-5.6169696E-2,-1.1452091E-1,1.2965891E-1,-1.2260644E-1,-2.8433785E-1,-7.48526E-2,-3.7449813E-1,-1.7905341E-1,2.0535786E-1,3.358857E-1,-5.0905637E-2,-2.8622663E-1,1.6492721E-1,2.2431554E-1,-5.7287235E-2,-1.573359E-2,-3.4388226E-1,-7.7850744E-2,3.364352E-1,2.793451E-2,2.113925E-1,-1.7325634E-1,6.4090905E-3,2.8259316E-1,-1.4371835E-1,-2.2871587E-1,2.5904015E-1,-4.235401E-1,2.1490318E-1,3.1908172E-1,2.2887781E-2,-2.7037612E-1,-3.230514E-2,-3.20566E-1,6.750849E-2,-2.2459085E-1,7.7720754E-2,3.2261246E-1,2.735568E-3],"categories":[],"categories_nodes":[],"categories_segments":[],"categories_sizes":[],"default_left":[0,0,0,0,0,0,0,0,0,0,0,0,0,0,0,0,0,0,0,0,0,0,0,0,0,0,0,0,0,0,0,0,0,0,0,0,0,0,0,0,0,0,0,0,0,0,0,0,0,0,0,0,0,0,0,0,0,0,0,0,0,0,0,0,0,0,0,0,0,0,0,0,0,0,0,0,0,0,0,0,0,0,0,0,0,0,0,0,0,0,0,0,0,0,0,0,0],"id":11,"left_children":[1,3,5,7,9,11,13,15,17,19,21,23,25,27,29,31,33,35,37,39,-1,41,43,45,47,49,51,53,-1,55,57,59,61,63,65,67,-1,69,-1,71,-1,73,75,-1,-1,77,79,81,83,85,87,-1,-1,89,91,93,-1,95,-1,-1,-1,-1,-1,-1,-1,-1,-1,-1,-1,-1,-1,-1,-1,-1,-1,-1,-1,-1,-1,-1,-1,-1,-1,-1,-1,-1,-1,-1,-1,-1,-1,-1,-1,-1,-1,-1,-1],"loss_changes":[2.7690496E1,9.176071E0,2.1275513E1,5.6671867E0,9.562223E0,1.814021E1,1.38249855E1,3.3814507E0,7.783031E0,4.897194E0,4.282123E0,1.8865889E1,1.1799648E1,5.9193554E0,8.730461E0,5.774786E0,5.2827587E0,4.2581835E0,5.8361597E0,5.02392E0,0E0,5.0207124E0,4.2053795E-1,2.1394686E1,1.0896795E1,8.127262E0,1.9655807E0,5.4864273E0,0E0,3.432219E0,2.0430183E0,3.3100724E0,3.1822205E-1,4.1589737E-1,1.9913682E0,4.4790244E0,0E0,4.098467E0,0E0,3.0315216E0,0E0,1.5318274E0,2.3267496E0,0E0,0E0,1.3774784E1,1.4188368E1,7.9135017E0,1.7510117E1,1.4864723E1,1.2369995E0,0E0,0E0,6.820512E0,3.6257496E0,2.1278784E0,0E0,1.4472017E0,0E0,0E0,0E0,0E0,0E0,0E0,0E0,0E0,0E0,0E0,0E0,0E0,0E0,0E0,0E0,0E0,0E0,0E0,0E0,0E0,0E0,0E0,0E0,0E0,0E0,0E0,0E0,0E0,0E0,0E0,0E0,0E0,0E0,0E0,0E0,0E0,0E0,0E0,0E0],"parents":[2147483647,0,0,1,1,2,2,3,3,4,4,5,5,6,6,7,7,8,8,9,9,10,10,11,11,12,12,13,13,14,14,15,15,16,16,17,17,18,18,19,19,21,21,22,22,23,23,24,24,25,25,26,26,27,27,29,29,30,30,31,31,32,32,33,33,34,34,35,35,37,37,39,39,41,41,42,42,45,45,46,46,47,47,48,48,49,49,50,50,53,53,54,54,55,55,57,57],"right_children":[2,4,6,8,10,12,14,16,18,20,22,24,26,28,30,32,34,36,38,40,-1,42,44,46,48,50,52,54,-1,56,58,60,62,64,66,68,-1,70,-1,72,-1,74,76,-1,-1,78,80,82,84,86,88,-1,-1,90,92,94,-1,96,-1,-1,-1,-1,-1,-1,-1,-1,-1,-1,-1,-1,-1,-1,-1,-1,-1,-1,-1,-1,-1,-1,-1,-1,-1,-1,-1,-1,-1,-1,-1,-1,-1,-1,-1,-1,-1,-1,-1],"split_conditions":[1E0,2E1,7.296E3,5E0,7E0,4E0,1.6E1,4.6E-1,1E0,1.3E2,5.302E3,6E0,1E0,1.923077E-1,2.739726E-2,6.3E1,8.108108E-2,1.52E2,8.549618E-1,9E1,-2.1716793E-1,1.3E1,8.317E3,1E0,6.25E-2,1E0,1E0,9E0,2.8274924E-1,1E0,9.2E1,3E0,2E0,3E0,7.5E-1,2.9411765E-2,-1.7529854E-1,1E0,2.9103744E-1,1.2E1,4.8770523E-1,5E0,1.04166664E-1,-3.4430397E-1,-6.694901E-2,6.944444E-1,4E0,5E0,1.4E1,1E0,1.3E2,-4.8088223E-1,-4.5038044E-2,3E0,2E0,3.5E1,2.3133317E-1,8.592E3,-5.6169696E-2,-1.1452091E-1,1.2965891E-1,-1.2260644E-1,-2.8433785E-1,-7.48526E-2,-3.7449813E-1,-1.7905341E-1,2.0535786E-1,3.358857E-1,-5.0905637E-2,-2.8622663E-1,1.6492721E-1,2.2431554E-1,-5.7287235E-2,-1.573359E-2,-3.4388226E-1,-7.7850744E-2,3.364352E-1,2.793451E-2,2.113925E-1,-1.7325634E-1,6.4090905E-3,2.8259316E-1,-1.4371835E-1,-2.2871587E-1,2.5904015E-1,-4.235401E-1,2.1490318E-1,3.1908172E-1,2.2887781E-2,-2.7037612E-1,-3.230514E-2,-3.20566E-1,6.750849E-2,-2.2459085E-1,7.7720754E-2,3.2261246E-1,2.735568E-3],"split_indices":[7,19,11,13,5,8,18,15,9,1,11,13,17,6,16,1,16,1,15,1,0,18,11,0,16,11,14,5,0,2,1,8,8,13,15,16,0,10,0,18,0,4,15,0,0,15,13,9,18,1,1,0,0,4,2,19,0,11,0,0,0,0,0,0,0,0,0,0,0,0,0,0,0,0,0,0,0,0,0,0,0,0,0,0,0,0,0,0,0,0,0,0,0,0,0,0,0],"split_type":[0,0,0,0,0,0,0,0,0,0,0,0,0,0,0,0,0,0,0,0,0,0,0,0,0,0,0,0,0,0,0,0,0,0,0,0,0,0,0,0,0,0,0,0,0,0,0,0,0,0,0,0,0,0,0,0,0,0,0,0,0,0,0,0,0,0,0,0,0,0,0,0,0,0,0,0,0,0,0,0,0,0,0,0,0,0,0,0,0,0,0,0,0,0,0,0,0],"sum_hessian":[7.7651855E2,1.4210889E2,6.3440967E2,1.0881344E2,3.329544E1,5.34132E2,1.0027769E2,7.949315E1,2.9320292E1,1.8068464E1,1.5226977E1,4.7540588E2,5.872612E1,7.508541E1,2.5192274E1,5.8271946E1,2.12212E1,1.3121781E1,1.619851E1,1.6185863E1,1.8826022E0,8.506944E0,6.720034E0,4.0091693E2,7.448894E1,5.5489185E1,3.236934E0,7.333585E1,1.7495626E0,1.1764806E1,1.3427469E1,3.3782936E1,2.448901E1,1.821788E1,3.0033214E0,1.0503161E1,2.61862E0,1.4908076E1,1.2904334E0,1.2544456E1,3.641407E0,4.4332643E0,4.073679E0,5.583101E0,1.1369331E0,2.43514E2,1.5740294E2,4.994835E1,2.4540586E1,1.4753927E1,4.0735256E1,1.2583358E0,1.9785982E0,4.8063663E1,2.5272186E1,1.0210296E1,1.5545101E0,1.1989963E1,1.4375067E0,2.8641455E1,5.1414814E0,3.4754965E0,2.1013514E1,1.008877E0,1.7209003E1,1.1519219E0,1.8513994E0,6.727238E0,3.7759233E0,1.3494317E1,1.4137589E0,7.182886E0,5.3615694E0,2.3761272E0,2.0571373E0,1.3392359E0,2.7344432E0,1.992034E2,4.4310608E1,7.476585E1,8.263709E1,4.6274307E1,3.6740427E0,1.2809005E1,1.1731582E1,3.4909182E0,1.1263009E1,3.9258842E1,1.4764147E0,1.5467213E1,3.259645E1,2.3237387E1,2.0347993E0,8.035254E0,2.1750426E0,1.0539883E1,1.4500797E0],"tree_param":{"num_deleted":"0","num_feature":"20","num_nodes":"97","size_leaf_vector":"1"}},{"base_weights":[2.8054912E-3,2.2451729E-1,-1.4535952E-1,-1.6233182E-1,6.0124195E-1,-7.9394534E-2,-7.906857E-1,-2.50521E-1,6.978773E-1,8.791734E-1,2.7698705E-1,-1.6925895E-1,3.473827E-1,-8.721325E-1,1.6794954E-1,6.327584E-1,-3.107259E-1,9.3568414E-1,-4.25042E-1,4.1375005E-1,9.787284E-1,-2.1935628E-1,5.4892224E-1,-2.2297944E-1,6.95208E-1,5.890985E-1,-8.767643E-1,7.7514894E-2,-9.1492325E-1,8.2452357E-1,-5.689923E-2,-1.4093575E-1,-6.0417086E-1,1.096058E-1,3.011291E-1,-2.0299448E-1,1.3261329E-2,-2.9064253E-1,6.565903E-1,1.0181301E0,-1.4225353E-1,-5.362389E-1,5.710863E-1,9.387761E-1,5.053288E-2,-1.09333076E-1,-8.0226743E-1,8.112974E-1,-3.722805E-2,1.0302538E0,3.625441E-1,-3.1279042E-1,-1.3145223E-1,-2.9051998E-1,-1.18853144E-1,8.350005E-2,3.0934936E-1,1.2518168E-2,-2.1640058E-1,-3.4652555E-1,-3.842818E-2,1.09856315E-1,-3.8653266E-1,3.0765781E-2,2.9559496E-1,1.3084856E-1,3.1617814E-1,1.2229472E-1,-1.9184984E-1,4.204652E-2,-2.224165E-1,3.3143634E-1,-1.7537817E-1,5.294792E-2,3.453402E-1,-5.0731506E-2,3.0346575E-1,-1.4286934E-1,1.8449182E-2,7.3068514E-2,-2.7890134E-1,2.5637662E-1,2.4716241E-2,1.3965166E-1,-1.7798182E-1,-1.9532459E-2,3.4561864E-1,2.8281651E-2,2.875519E-1,1.2352111E-1,-1.7997867E-1,-1.9719262E-1,1.8057567E-1],"categories":[],"categories_nodes":[],"categories_segments":[],"categories_sizes":[],"default_left":[0,0,0,0,0,0,0,0,0,0,0,0,0,0,0,0,0,0,0,0,0,0,0,0,0,0,0,0,0,0,0,0,0,0,0,0,0,0,0,0,0,0,0,0,0,0,0,0,0,0,0,0,0,0,0,0,0,0,0,0,0,0,0,0,0,0,0,0,0,0,0,0,0,0,0,0,0,0,0,0,0,0,0,0,0,0,0,0,0,0,0,0,0],"id":12,"left_children":[1,3,5,7,9,11,13,15,17,19,21,23,25,27,-1,29,31,33,35,37,39,41,43,45,47,49,51,-1,53,55,-1,57,59,-1,-1,-1,-1,61,63,65,67,69,71,73,75,77,79,81,83,85,87,-1,89,-1,91,-1,-1,-1,-1,-1,-1,-1,-1,-1,-1,-1,-1,-1,-1,-1,-1,-1,-1,-1,-1,-1,-1,-1,-1,-1,-1,-1,-1,-1,-1,-1,-1,-1,-1,-1,-1,-1,-1],"loss_changes":[2.3977676E1,4.270838E1,1.8562752E1,1.1177818E1,1.3125256E1,1.53257065E1,4.9392643E0,7.231494E0,4.0697875E0,3.2748718E0,9.558525E0,1.5457066E1,2.1101421E1,2.1015205E0,0E0,1.5396616E0,6.1188936E0,8.6016655E-2,3.948335E-1,2.8809216E0,3.002121E0,6.684649E0,8.785552E0,2.038554E1,1.690052E0,5.492771E0,1.3307991E0,0E0,1.4757462E0,5.3685284E-1,0E0,8.530916E0,1.174262E1,0E0,0E0,0E0,0E0,3.5684595E0,2.084753E0,8.447876E-1,1.1012441E0,2.6978445E0,5.4392653E0,3.9167538E0,4.6057386E0,1.6396675E1,7.00124E0,4.626999E-1,1.2900385E0,2.659729E0,6.356404E0,0E0,1.0882164E0,0E0,1.7509747E0,0E0,0E0,0E0,0E0,0E0,0E0,0E0,0E0,0E0,0E0,0E0,0E0,0E0,0E0,0E0,0E0,0E0,0E0,0E0,0E0,0E0,0E0,0E0,0E0,0E0,0E0,0E0,0E0,0E0,0E0,0E0,0E0,0E0,0E0,0E0,0E0,0E0,0E0],"parents":[2147483647,0,0,1,1,2,2,3,3,4,4,5,5,6,6,7,7,8,8,9,9,10,10,11,11,12,12,13,13,15,15,16,16,17,17,18,18,19,19,20,20,21,21,22,22,23,23,24,24,25,25,26,26,28,28,29,29,31,31,32,32,37,37,38,38,39,39,40,40,41,41,42,42,43,43,44,44,45,45,46,46,47,47,48,48,49,49,50,50,52,52,54,54],"right_children":[2,4,6,8,10,12,14,16,18,20,22,24,26,28,-1,30,32,34,36,38,40,42,44,46,48,50,52,-1,54,56,-1,58,60,-1,-1,-1,-1,62,64,66,68,70,72,74,76,78,80,82,84,86,88,-1,90,-1,92,-1,-1,-1,-1,-1,-1,-1,-1,-1,-1,-1,-1,-1,-1,-1,-1,-1,-1,-1,-1,-1,-1,-1,-1,-1,-1,-1,-1,-1,-1,-1,-1,-1,-1,-1,-1,-1,-1],"split_conditions":[2.314E3,1E0,1.86E2,1E0,1.129E3,6E0,3.4E1,7E0,5.4E1,1E0,1E0,3.5E1,8.373E3,2E0,1.6794954E-1,1.6666668E-2,8E0,7E0,8.4745765E-2,3.34E2,1E0,2.3E1,1E0,2E0,5.3E1,8E0,1E0,7.7514894E-2,7E0,1E-2,-5.689923E-2,6.8E1,1E1,1.096058E-1,3.011291E-1,-2.0299448E-1,1.3261329E-2,1.64E2,1E0,2E0,6E0,1.5E1,1E0,2E0,1.9E1,3E0,6E0,5E0,7.295E3,1.3E1,1E0,-3.1279042E-1,1E-2,-2.9051998E-1,4.4444445E-1,8.350005E-2,3.0934936E-1,1.2518168E-2,-2.1640058E-1,-3.4652555E-1,-3.842818E-2,1.09856315E-1,-3.8653266E-1,3.0765781E-2,2.9559496E-1,1.3084856E-1,3.1617814E-1,1.2229472E-1,-1.9184984E-1,4.204652E-2,-2.224165E-1,3.3143634E-1,-1.7537817E-1,5.294792E-2,3.453402E-1,-5.0731506E-2,3.0346575E-1,-1.4286934E-1,1.8449182E-2,7.3068514E-2,-2.7890134E-1,2.5637662E-1,2.4716241E-2,1.3965166E-1,-1.7798182E-1,-1.9532459E-2,3.4561864E-1,2.8281651E-2,2.875519E-1,1.2352111E-1,-1.7997867E-1,-1.9719262E-1,1.8057567E-1],"split_indices":[11,11,1,3,11,13,19,19,1,7,5,19,11,4,0,6,5,4,15,11,15,19,9,9,1,4,2,0,13,16,0,1,5,0,0,0,0,11,5,4,1,1,0,8,18,4,5,9,11,19,10,0,16,0,15,0,0,0,0,0,0,0,0,0,0,0,0,0,0,0,0,0,0,0,0,0,0,0,0,0,0,0,0,0,0,0,0,0,0,0,0,0,0],"split_type":[0,0,0,0,0,0,0,0,0,0,0,0,0,0,0,0,0,0,0,0,0,0,0,0,0,0,0,0,0,0,0,0,0,0,0,0,0,0,0,0,0,0,0,0,0,0,0,0,0,0,0,0,0,0,0,0,0,0,0,0,0,0,0,0,0,0,0,0,0,0,0,0,0,0,0,0,0,0,0,0,0,0,0,0,0,0,0,0,0,0,0,0,0],"sum_hessian":[7.2792224E2,2.913842E2,4.3653806E2,1.4404109E2,1.4734308E2,3.9707248E2,3.9465553E1,1.3128993E2,1.2751163E1,7.841725E1,6.892583E1,3.2850433E2,6.856816E1,3.7554924E1,1.9106326E0,7.7709217E0,1.2351901E2,1.0660309E1,2.0908535E0,1.4726465E1,6.3690784E1,2.4465004E1,4.4460823E1,3.0998312E2,1.8521193E1,5.769473E1,1.0873432E1,1.1858883E0,3.6369034E1,6.2995043E0,1.4714175E0,7.918314E1,4.433587E1,1.8157282E0,8.844581E0,1.073345E0,1.0175084E0,3.7249298E0,1.1001535E1,6.1616756E1,2.0740292E0,1.7693434E1,6.77157E0,2.445098E1,2.0009846E1,2.601374E2,4.9845753E1,1.5894312E1,2.626881E0,1.83722E1,3.932253E1,8.567743E0,2.3056889E0,3.3876854E1,2.4921803E0,2.3733215E0,3.9261827E0,6.0934105E1,1.8249039E1,1.9891384E1,2.4444485E1,2.6279867E0,1.096943E0,4.5853395E0,6.4161963E0,4.3344154E0,5.728234E1,1.0704303E0,1.003599E0,4.191277E0,1.3502156E1,4.6624527E0,2.1091175E0,5.7264256E0,1.8724554E1,1.695815E1,3.0516942E0,8.207482E1,1.7806256E2,5.3138394E0,4.4531914E1,1.4840488E1,1.0538236E0,1.465087E0,1.1617938E0,1.8851824E0,1.6487019E1,2.7914862E1,1.1407667E1,1.123791E0,1.181898E0,1.4769032E0,1.0152773E0],"tree_param":{"num_deleted":"0","num_feature":"20","num_nodes":"93","size_leaf_vector":"1"}},{"base_weights":[5.6930794E-3,-2.9741025E-2,7.56062E-1,1.5559791E-1,-1.519786E-1,8.523124E-1,-1.9507861E-1,-1.4438874E-1,4.8610547E-1,-2.3858829E-1,2.950285E-1,-8.760221E-2,9.726255E-1,1.052287E-2,-4.1080385E-1,8.313014E-1,2.507005E-1,1.7191455E-2,-4.6400696E-1,5.669288E-1,-5.011251E-1,-2.3109327E-1,3.7599605E-1,9.9758106E-1,5.4577347E-2,-5.8104455E-1,1.3067318E-1,-8.105002E-1,-1.8851511E-1,4.4846043E-1,9.921662E-1,-2.3085457E-1,5.7076627E-1,-9.898129E-2,2.2238362E0,-6.301126E-1,-3.367689E-2,7.5252724E-1,-6.597473E-2,1.8472092E-1,-6.7112064E-1,3.728314E-2,1.3516961E-1,1.0169373E-1,3.0608958E-1,-1.9808485E-1,6.40023E-2,1.5638591E-1,-4.2554732E-2,3.6993936E-2,-2.826509E-1,7.477547E-4,-3.5775644E-1,-2.3275979E-2,2.3170258E-1,3.1228778E-1,8.471128E-2,-1.6716312E-1,7.0337735E-2,2.9332325E-1,1.887728E-2,1.5370073E-2,-1.7443146E-1,9.0100455E-1,3.6369714E-1,1.20999336E-1,-2.0805337E-1,2.0628813E-1,-8.421655E-2,2.861459E-1,3.7733674E-2,-3.490118E-1,6.605088E-2,-2.4122131E-1,1.7030457E-1],"categories":[],"categories_nodes":[],"categories_segments":[],"categories_sizes":[],"default_left":[0,0,0,0,0,0,0,0,0,0,0,0,0,0,0,0,0,0,0,0,0,0,0,0,0,0,0,0,0,0,0,0,0,0,0,0,0,0,0,0,0,0,0,0,0,0,0,0,0,0,0,0,0,0,0,0,0,0,0,0,0,0,0,0,0,0,0,0,0,0,0,0,0,0,0],"id":13,"left_children":[1,3,5,7,9,11,-1,13,15,17,19,21,23,25,27,29,31,33,35,37,39,-1,41,43,-1,45,47,49,51,53,55,57,59,61,63,65,67,69,71,-1,73,-1,-1,-1,-1,-1,-1,-1,-1,-1,-1,-1,-1,-1,-1,-1,-1,-1,-1,-1,-1,-1,-1,-1,-1,-1,-1,-1,-1,-1,-1,-1,-1,-1,-1],"loss_changes":[1.824677E1,1.4873586E1,4.7429485E0,2.5947025E1,1.5381392E1,3.4093876E0,0E0,5.6825337E0,9.901106E0,1.914119E1,1.4276136E1,1.6357689E0,3.3436966E-1,6.328777E0,4.3439255E0,2.634922E0,1.1752895E1,4.0317856E1,1.2589722E1,5.7644176E0,3.6381326E0,0E0,4.16559E-3,2.9977798E-2,0E0,1.0872507E0,7.9446945E0,2.3028955E0,6.490007E0,2.8917613E0,8.9704514E-1,4.8103943E0,9.359368E0,1.0868087E1,2.5608788E0,8.616024E0,9.1367E0,4.6361694E0,4.008944E0,0E0,2.9632134E0,0E0,0E0,0E0,0E0,0E0,0E0,0E0,0E0,0E0,0E0,0E0,0E0,0E0,0E0,0E0,0E0,0E0,0E0,0E0,0E0,0E0,0E0,0E0,0E0,0E0,0E0,0E0,0E0,0E0,0E0,0E0,0E0,0E0,0E0],"parents":[2147483647,0,0,1,1,2,2,3,3,4,4,5,5,7,7,8,8,9,9,10,10,11,11,12,12,13,13,14,14,15,15,16,16,17,17,18,18,19,19,20,20,22,22,23,23,25,25,26,26,27,27,28,28,29,29,30,30,31,31,32,32,33,33,34,34,35,35,36,36,37,37,38,38,40,40],"right_children":[2,4,6,8,10,12,-1,14,16,18,20,22,24,26,28,30,32,34,36,38,40,-1,42,44,-1,46,48,50,52,54,56,58,60,62,64,66,68,70,72,-1,74,-1,-1,-1,-1,-1,-1,-1,-1,-1,-1,-1,-1,-1,-1,-1,-1,-1,-1,-1,-1,-1,-1,-1,-1,-1,-1,-1,-1,-1,-1,-1,-1,-1,-1],"split_conditions":[2.9E1,2.314E3,8E0,1E0,7.124183E-1,1.1235955E-2,-1.9507861E-1,1E0,8.08E2,6.818182E-2,4.4E1,3.4E1,8.348E3,2E0,4E0,1.7E1,1E0,6.7961164E-2,3E0,7.298E3,1.3E1,-2.3109327E-1,1.15384616E-1,4.195804E-2,5.4577347E-2,1.84E2,4E0,1.4E1,1E0,1E1,1E0,2E1,1E0,1.1764706E-2,2.5E-2,8E0,7E0,1E0,7.309E3,1.8472092E-1,7E0,3.728314E-2,1.3516961E-1,1.0169373E-1,3.0608958E-1,-1.9808485E-1,6.40023E-2,1.5638591E-1,-4.2554732E-2,3.6993936E-2,-2.826509E-1,7.477547E-4,-3.5775644E-1,-2.3275979E-2,2.3170258E-1,3.1228778E-1,8.471128E-2,-1.6716312E-1,7.0337735E-2,2.9332325E-1,1.887728E-2,1.5370073E-2,-1.7443146E-1,9.0100455E-1,3.6369714E-1,1.20999336E-1,-2.0805337E-1,2.0628813E-1,-8.421655E-2,2.861459E-1,3.7733674E-2,-3.490118E-1,6.605088E-2,-2.4122131E-1,1.7030457E-1],"split_indices":[18,11,14,11,15,16,0,0,11,15,1,19,11,4,4,19,5,15,8,11,19,0,15,16,0,1,13,19,12,1,10,19,9,15,6,1,5,15,11,0,13,0,0,0,0,0,0,0,0,0,0,0,0,0,0,0,0,0,0,0,0,0,0,0,0,0,0,0,0,0,0,0,0,0,0],"split_type":[0,0,0,0,0,0,0,0,0,0,0,0,0,0,0,0,0,0,0,0,0,0,0,0,0,0,0,0,0,0,0,0,0,0,0,0,0,0,0,0,0,0,0,0,0,0,0,0,0,0,0,0,0,0,0,0,0,0,0,0,0,0,0,0,0,0,0,0,0,0,0,0,0,0,0],"sum_hessian":[6.844159E2,6.544707E2,2.9945211E1,2.599924E2,3.9447833E2,2.8395718E1,1.5494922E0,1.3658424E2,1.2340815E2,3.3084235E2,6.363598E1,3.2531574E0,2.5142561E1,8.697288E1,4.961136E1,4.900956E1,7.439859E1,1.554167E2,1.7542564E2,4.765044E1,1.5985538E1,1.048101E0,2.2050564E0,2.4119673E1,1.0228893E0,1.4034954E1,7.293793E1,1.6784704E1,3.2826653E1,1.5621019E1,3.3388542E1,2.9816658E1,4.4581932E1,1.485511E2,6.8655944E0,1.2623515E2,4.9190487E1,3.669937E1,1.0951069E1,1.765332E0,1.4220206E1,1.113359E0,1.0916973E0,1.3351092E0,2.2784563E1,1.2915476E1,1.1194776E0,2.9599453E1,4.3338474E1,2.0820506E0,1.4702653E1,2.8417812E1,4.408841E0,6.2424703E0,9.378549E0,3.0804407E1,2.584134E0,1.7409035E1,1.2407623E1,2.423502E1,2.0346912E1,1.139623E2,3.4588806E1,2.765343E0,4.1002517E0,6.9866066E0,1.1924855E2,1.2094482E1,3.7096004E1,2.7382952E1,9.316421E0,1.6308557E0,9.320213E0,1.3158899E1,1.0613065E0],"tree_param":{"num_deleted":"0","num_feature":"20","num_nodes":"75","size_leaf_vector":"1"}},{"base_weights":[8.153025E-3,-2.4416868E-2,7.189821E-1,-9.68334E-2,2.4936669E-1,3.045101E-1,3.2973602E-1,1.5165597E-2,-3.4642836E-1,3.478506E-1,-3.8764775E-1,7.439592E-1,-1.9293763E-1,-2.9112795E-1,1.5354475E-1,-4.4712496E-1,4.2628443E-1,2.907329E-1,4.229187E-1,-5.9734553E-1,2.9289934E-1,2.7161214E-1,-1.7670656E-2,1.8181461E-1,-7.5967145E-1,-1.1835158E-1,-6.1958545E-1,2.9369047E-1,-3.902732E-1,-2.3746215E-1,-6.764708E-1,-1.6486368E-1,5.7920724E-1,6.6810864E-1,1.2777562E-1,2.0972294E-1,-7.8257483E-1,-3.568417E-1,1.06042005E-1,-1.5115402E-2,-4.4106492E-1,-2.0903793E-1,1.3543859E-1,1.708066E-1,6.2727216E-3,-2.8632534E-1,-6.289777E-2,-1.8026157E-1,-5.5289036E-4,-1.0253154E-1,-2.4917653E-1,2.6725924E-1,-5.167229E-2,2.32845E-1,-1.8189205E-2,2.828953E-3,3.241657E-1,1.9815502E-1,-9.657269E-2,-2.9271567E-1,1.16386615E-1],"categories":[],"categories_nodes":[],"categories_segments":[],"categories_sizes":[],"default_left":[0,0,0,0,0,0,0,0,0,0,0,0,0,0,0,0,0,0,0,0,0,0,0,0,0,0,0,0,0,0,0,0,0,0,0,0,0,0,0,0,0,0,0,0,0,0,0,0,0,0,0,0,0,0,0,0,0,0,0,0,0],"id":14,"left_children":[1,3,5,7,9,-1,11,13,15,17,19,21,23,25,27,29,31,33,-1,35,-1,-1,-1,-1,37,39,41,43,45,47,49,-1,51,53,55,57,59,-1,-1,-1,-1,-1,-1,-1,-1,-1,-1,-1,-1,-1,-1,-1,-1,-1,-1,-1,-1,-1,-1,-1,-1],"loss_changes":[1.4896699E1,1.2227179E1,2.9138498E0,1.363209E1,8.229346E0,0E0,3.10085E0,1.4346906E1,1.1942053E1,6.399912E0,5.6600018E0,1.067555E0,3.5545583E0,5.905471E0,1.787887E1,6.2878036E0,2.99307E0,6.5442095E0,0E0,2.5567255E0,0E0,0E0,0E0,0E0,2.5453396E0,6.3828697E0,3.2981052E0,1.3966742E1,4.709984E0,6.129675E0,2.9919014E0,0E0,3.8964968E0,2.588274E0,8.618974E0,1.1176208E0,3.3692656E0,0E0,0E0,0E0,0E0,0E0,0E0,0E0,0E0,0E0,0E0,0E0,0E0,0E0,0E0,0E0,0E0,0E0,0E0,0E0,0E0,0E0,0E0,0E0,0E0],"parents":[2147483647,0,0,1,1,2,2,3,3,4,4,6,6,7,7,8,8,9,9,10,10,11,11,12,12,13,13,14,14,15,15,16,16,17,17,19,19,24,24,25,25,26,26,27,27,28,28,29,29,30,30,32,32,33,33,34,34,35,35,36,36],"right_children":[2,4,6,8,10,-1,12,14,16,18,20,22,24,26,28,30,32,34,-1,36,-1,-1,-1,-1,38,40,42,44,46,48,50,-1,52,54,56,58,60,-1,-1,-1,-1,-1,-1,-1,-1,-1,-1,-1,-1,-1,-1,-1,-1,-1,-1,-1,-1,-1,-1,-1,-1],"split_conditions":[2E0,2.5E1,1.6129032E-2,1E0,1.04E2,3.045101E-1,3.066E3,2E0,1E0,1.03E2,3.69E2,4E0,1.8E1,1E0,7.04E3,3.747E3,9E0,1.971E3,4.229187E-1,5.5555556E-2,2.9289934E-1,2.7161214E-1,-1.7670656E-2,1.8181461E-1,3E0,1E0,2.4E1,8E0,4E0,1E0,9E0,-1.6486368E-1,5.744681E-1,5.4E1,7.616E3,1E0,6.521739E-2,-3.568417E-1,1.06042005E-1,-1.5115402E-2,-4.4106492E-1,-2.0903793E-1,1.3543859E-1,1.708066E-1,6.2727216E-3,-2.8632534E-1,-6.289777E-2,-1.8026157E-1,-5.5289036E-4,-1.0253154E-1,-2.4917653E-1,2.6725924E-1,-5.167229E-2,2.32845E-1,-1.8189205E-2,2.828953E-3,3.241657E-1,1.9815502E-1,-9.657269E-2,-2.9271567E-1,1.16386615E-1],"split_indices":[2,19,16,9,1,0,11,5,14,1,1,9,19,0,11,11,18,11,0,15,0,0,0,0,2,12,19,5,13,11,18,0,15,1,11,0,16,0,0,0,0,0,0,0,0,0,0,0,0,0,0,0,0,0,0,0,0,0,0,0,0],"split_type":[0,0,0,0,0,0,0,0,0,0,0,0,0,0,0,0,0,0,0,0,0,0,0,0,0,0,0,0,0,0,0,0,0,0,0,0,0,0,0,0,0,0,0,0,0,0,0,0,0,0,0,0,0,0,0,0,0,0,0,0,0],"sum_hessian":[6.4168243E2,6.144923E2,2.7190134E1,4.8646677E2,1.2802554E2,1.4530716E1,1.2659418E1,3.364384E2,1.500284E2,1.1127596E2,1.6749582E1,6.8262143E0,5.8332033E0,1.0435385E2,2.3208453E2,1.3310419E2,1.6924204E1,1.06804794E2,4.4711637E0,1.5004805E1,1.7447786E0,5.577233E0,1.2489816E0,2.3918214E0,3.441382E0,6.927428E1,3.5079575E1,1.8489558E2,4.718895E1,7.05993E1,6.2504894E1,1.9415004E0,1.4982704E1,3.1276022E1,7.552878E1,2.7762187E0,1.2228585E1,2.4332867E0,1.0080954E0,6.6945755E1,2.3285217E0,3.304679E1,2.032786E0,9.1421005E1,9.347458E1,1.0404957E1,3.6783993E1,2.715945E1,4.3439846E1,2.0721457E1,4.178344E1,1.0459277E1,4.523427E0,2.7181145E1,4.094876E0,6.808209E1,7.446679E0,1.3711385E0,1.4050802E0,1.0639447E1,1.5891382E0],"tree_param":{"num_deleted":"0","num_feature":"20","num_nodes":"61","size_leaf_vector":"1"}},{"base_weights":[7.149125E-3,-2.0692859E-2,6.8409187E-1,-4.417993E-2,7.086449E-1,7.876329E-1,-1.5693629E-1,-6.841879E-2,6.3135254E-1,1.1187595E-1,8.355608E-1,-1.015206E-1,9.2680895E-1,4.9236648E-2,-2.481396E-1,9.422538E-1,1.6546923E-1,2.2042386E-1,-3.9224306E-1,9.203634E-1,-4.583595E-2,1.23528026E-1,-1.4329988E-1,3.660415E-1,2.9670838E-1,3.604737E-1,-7.120586E-2,-3.405814E-1,3.677966E-1,2.9915133E-1,9.262402E-2,-1.919226E-1,6.369381E-1,-2.7711195E-1,1.02178805E-1,3.5449502E-1,3.2117587E-1,-1.0208369E-3,1.7419001E-1,1.3244225E-1,-1.659159E-1,-3.8923163E-2,1.8039027E-1,-4.582229E-2,-1.9327076E-1,1.4375246E-2,2.4363124E-1,-1.5402141E-1,1.6494781E-1,5.0639205E-2,2.2578323E-1,2.2896934E-1,-1.5341035E-1],"categories":[],"categories_nodes":[],"categories_segments":[],"categories_sizes":[],"default_left":[0,0,0,0,0,0,0,0,0,0,0,0,0,0,0,0,0,0,0,0,0,0,0,0,0,0,0,0,0,0,0,0,0,0,0,0,0,0,0,0,0,0,0,0,0,0,0,0,0,0,0,0,0],"id":15,"left_children":[1,3,5,7,9,11,-1,13,15,17,19,21,23,25,27,29,31,-1,33,35,-1,-1,-1,37,-1,39,41,43,45,-1,-1,47,49,-1,-1,51,-1,-1,-1,-1,-1,-1,-1,-1,-1,-1,-1,-1,-1,-1,-1,-1,-1],"loss_changes":[1.158416E1,1.0148238E1,3.4469452E0,9.427419E0,1.3065252E0,2.9107695E0,0E0,1.1730069E1,2.7336297E0,1.6686401E0,1.4052258E0,9.65448E-1,3.2808304E-1,1.26114855E1,1.26185055E1,1.009779E-1,1.6720285E0,0E0,1.514872E0,8.1382084E-1,0E0,0E0,0E0,2.844468E-1,0E0,7.1880283E0,9.6404915E0,1.0813259E1,4.098944E0,0E0,0E0,1.7130799E0,1.0025525E-1,0E0,0E0,1.9616523E0,0E0,0E0,0E0,0E0,0E0,0E0,0E0,0E0,0E0,0E0,0E0,0E0,0E0,0E0,0E0,0E0,0E0],"parents":[2147483647,0,0,1,1,2,2,3,3,4,4,5,5,7,7,8,8,9,9,10,10,11,11,12,12,13,13,14,14,15,15,16,16,18,18,19,19,23,23,25,25,26,26,27,27,28,28,31,31,32,32,35,35],"right_children":[2,4,6,8,10,12,-1,14,16,18,20,22,24,26,28,30,32,-1,34,36,-1,-1,-1,38,-1,40,42,44,46,-1,-1,48,50,-1,-1,52,-1,-1,-1,-1,-1,-1,-1,-1,-1,-1,-1,-1,-1,-1,-1,-1,-1],"split_conditions":[2.9E1,5E0,8E0,2E0,1E0,1.1235955E-2,-1.5693629E-1,8E0,1.6129032E-2,2.3809524E-2,8.348E3,2.136E3,6.521739E-2,9E0,1E0,8.8E1,3E0,2.2042386E-1,1.2E1,7E0,-4.583595E-2,1.23528026E-1,-1.4329988E-1,3.9E1,2.9670838E-1,1.0344828E-1,9.230769E-1,5.426E3,5E0,2.9915133E-1,9.262402E-2,4.5454547E-1,9E0,-2.7711195E-1,1.02178805E-1,8E0,3.2117587E-1,-1.0208369E-3,1.7419001E-1,1.3244225E-1,-1.659159E-1,-3.8923163E-2,1.8039027E-1,-4.582229E-2,-1.9327076E-1,1.4375246E-2,2.4363124E-1,-1.5402141E-1,1.6494781E-1,5.0639205E-2,2.2578323E-1,2.2896934E-1,-1.5341035E-1],"split_indices":[18,8,14,2,1,16,0,5,16,16,11,11,16,1,10,1,2,0,18,4,0,0,0,18,0,16,15,11,13,0,0,15,5,0,0,5,0,0,0,0,0,0,0,0,0,0,0,0,0,0,0,0,0],"split_type":[0,0,0,0,0,0,0,0,0,0,0,0,0,0,0,0,0,0,0,0,0,0,0,0,0,0,0,0,0,0,0,0,0,0,0,0,0,0,0,0,0,0,0,0,0,0,0,0,0,0,0,0,0],"sum_hessian":[6.12877E2,5.895969E2,2.3280106E1,5.721124E2,1.7484474E1,2.1761234E1,1.5188712E0,5.531631E2,1.894939E1,3.396299E0,1.4088176E1,2.981825E0,1.877941E1,3.3474564E2,2.1841742E2,1.07518015E1,8.197589E0,1.3145748E0,2.0817242E0,1.3038248E1,1.0499281E0,1.2209961E0,1.760829E0,2.5629678E0,1.6216442E1,9.284103E1,2.419046E2,1.9030315E2,2.8114283E1,9.365849E0,1.385953E0,5.0001817E0,3.1974068E0,1.0556821E0,1.0260421E0,3.440008E0,9.59824E0,1.3033113E0,1.2596564E0,8.575413E1,7.0869E0,2.2327667E2,1.8627932E1,1.1850133E2,7.180182E1,1.6990105E1,1.1124176E1,3.7030742E0,1.2971077E0,1.1207732E0,2.0766337E0,2.4173932E0,1.0226147E0],"tree_param":{"num_deleted":"0","num_feature":"20","num_nodes":"53","size_leaf_vector":"1"}},{"base_weights":[1.0205449E-2,-2.2739891E-2,5.2489793E-1,-1.1454966E-1,1.6330758E-1,9.352067E-1,2.4078552E-1,1.6825573E-1,-2.1393903E-1,-3.9397645E-1,3.2818434E-1,7.77394E-2,2.9803365E-1,-2.4005505E-1,6.290869E-1,3.983307E-1,-1.858901E-1,-3.092468E-1,1.1582367E-1,7.72029E-1,-1.0828377E0,3.9422217E-1,-6.792017E-1,-5.7406616E-1,5.7484156E-1,-7.1129263E-3,7.3900145E-1,2.4186711E-1,7.9797095E-1,-7.7095526E-1,-5.834293E-2,-6.079027E-2,-4.576163E-1,4.421174E-1,-9.8225266E-2,1.9630575E-1,9.9735636E-1,-2.9098806E-1,-1.4572845E0,5.023872E-1,-1.3535333E-1,-2.8020185E-1,1.4375378E-1,-8.8251513E-1,1.9893223E-1,5.3337682E-2,1.9927897E-1,3.0018806E-1,1.18972726E-1,1.06385104E-1,-2.7181268E-1,-4.6875976E-2,2.6970056E-1,-5.637086E-2,-2.7155E-1,-2.4200672E-1,1.8757308E-2,-8.98065E-2,5.90977E-2,-2.2952561E-1,-2.512856E-2,2.0348288E-1,4.403877E-3,-2.4954869E-1,5.6213517E-2,2.0527665E-1,-1.9732702E-1,7.7607855E-2,3.4300798E-1,-2.498751E-1,1.0473421E-1,-4.8562083E-1,-4.023091E-2,1.7437322E-1,-2.975963E-2,-8.5771255E-2,3.0796298E-1,6.973228E-2,-4.4332487E-3,3.4903485E-2,-3.471765E-1,-1.5428574E-1,2.3888305E-1,2.2399998E-1,-2.3095287E-1],"categories":[],"categories_nodes":[],"categories_segments":[],"categories_sizes":[],"default_left":[0,0,0,0,0,0,0,0,0,0,0,0,0,0,0,0,0,0,0,0,0,0,0,0,0,0,0,0,0,0,0,0,0,0,0,0,0,0,0,0,0,0,0,0,0,0,0,0,0,0,0,0,0,0,0,0,0,0,0,0,0,0,0,0,0,0,0,0,0,0,0,0,0,0,0,0,0,0,0,0,0,0,0,0,0],"id":16,"left_children":[1,3,5,7,9,11,13,15,17,19,21,-1,-1,23,25,27,29,31,33,35,37,39,41,43,45,-1,47,49,51,53,55,57,59,61,63,65,67,69,71,73,75,-1,77,79,81,-1,-1,-1,83,-1,-1,-1,-1,-1,-1,-1,-1,-1,-1,-1,-1,-1,-1,-1,-1,-1,-1,-1,-1,-1,-1,-1,-1,-1,-1,-1,-1,-1,-1,-1,-1,-1,-1,-1,-1],"loss_changes":[1.0018481E1,9.508557E0,3.9181643E0,1.0508776E1,1.7034641E1,3.0148125E-1,4.323573E0,8.014453E0,8.714625E0,3.4941063E1,9.74943E0,0E0,0E0,3.244532E0,9.2444515E-1,3.5207386E0,2.8698056E0,7.8792915E0,4.4185753E0,1.9256048E0,7.6135674E0,7.7661343E0,2.0499363E0,2.1057177E0,1.0166764E-2,0E0,1.6408753E0,6.0311775E0,1.7095251E0,3.7058306E-1,3.0489326E0,5.0619345E0,1.5355806E1,2.513301E0,8.252962E0,2.8858943E0,9.453182E-1,3.7432494E0,3.6614075E0,5.36182E0,4.4184566E0,0E0,4.598598E-2,1.7730465E0,1.7408657E0,0E0,0E0,0E0,3.0041564E0,0E0,0E0,0E0,0E0,0E0,0E0,0E0,0E0,0E0,0E0,0E0,0E0,0E0,0E0,0E0,0E0,0E0,0E0,0E0,0E0,0E0,0E0,0E0,0E0,0E0,0E0,0E0,0E0,0E0,0E0,0E0,0E0,0E0,0E0,0E0,0E0],"parents":[2147483647,0,0,1,1,2,2,3,3,4,4,5,5,6,6,7,7,8,8,9,9,10,10,13,13,14,14,15,15,16,16,17,17,18,18,19,19,20,20,21,21,22,22,23,23,24,24,26,26,27,27,28,28,29,29,30,30,31,31,32,32,33,33,34,34,35,35,36,36,37,37,38,38,39,39,40,40,42,42,43,43,44,44,48,48],"right_children":[2,4,6,8,10,12,14,16,18,20,22,-1,-1,24,26,28,30,32,34,36,38,40,42,44,46,-1,48,50,52,54,56,58,60,62,64,66,68,70,72,74,76,-1,78,80,82,-1,-1,-1,84,-1,-1,-1,-1,-1,-1,-1,-1,-1,-1,-1,-1,-1,-1,-1,-1,-1,-1,-1,-1,-1,-1,-1,-1,-1,-1,-1,-1,-1,-1,-1,-1,-1,-1,-1,-1],"split_conditions":[9.375E-2,5E0,9.950249E-3,8E0,1E0,1E0,2E1,1E0,3E0,3E0,8.373E3,7.77394E-2,2.9803365E-1,8E0,1.1290322E-1,4E0,1E0,1.971E3,1E0,1.5E1,1.9607844E-2,3E0,1E0,5.1111114E-1,2.5531915E-1,-7.1129263E-3,4.4E1,2E0,2E0,9E0,3E0,1E0,5.639E3,7E0,6.557377E-2,6E0,7E0,1.9E1,1.6E1,1.54E2,9E-1,-2.8020185E-1,9.018E3,1.3E1,1.7777778E-1,5.3337682E-2,1.9927897E-1,3.0018806E-1,6.67E3,1.06385104E-1,-2.7181268E-1,-4.6875976E-2,2.6970056E-1,-5.637086E-2,-2.7155E-1,-2.4200672E-1,1.8757308E-2,-8.98065E-2,5.90977E-2,-2.2952561E-1,-2.512856E-2,2.0348288E-1,4.403877E-3,-2.4954869E-1,5.6213517E-2,2.0527665E-1,-1.9732702E-1,7.7607855E-2,3.4300798E-1,-2.498751E-1,1.0473421E-1,-4.8562083E-1,-4.023091E-2,1.7437322E-1,-2.975963E-2,-8.5771255E-2,3.0796298E-1,6.973228E-2,-4.4332487E-3,3.4903485E-2,-3.471765E-1,-1.5428574E-1,2.3888305E-1,2.2399998E-1,-2.3095287E-1],"split_indices":[6,13,15,1,1,7,19,0,8,8,11,0,0,4,15,1,7,11,0,19,16,9,2,15,6,0,1,1,4,18,4,11,11,4,15,4,5,19,18,1,15,0,11,1,6,0,0,0,11,0,0,0,0,0,0,0,0,0,0,0,0,0,0,0,0,0,0,0,0,0,0,0,0,0,0,0,0,0,0,0,0,0,0,0,0],"split_type":[0,0,0,0,0,0,0,0,0,0,0,0,0,0,0,0,0,0,0,0,0,0,0,0,0,0,0,0,0,0,0,0,0,0,0,0,0,0,0,0,0,0,0,0,0,0,0,0,0,0,0,0,0,0,0,0,0,0,0,0,0,0,0,0,0,0,0,0,0,0,0,0,0,0,0,0,0,0,0,0,0,0,0,0,0],"sum_hessian":[5.8912274E2,5.5458E2,3.4542713E1,3.7159265E2,1.8298737E2,1.3195045E1,2.134767E1,9.645212E1,2.7514053E2,4.1460663E1,1.415267E2,1.4787042E0,1.1716341E1,9.707938E0,1.1639731E1,5.839219E1,3.805993E1,2.1349777E2,6.1642765E1,1.5352842E1,2.610782E1,1.3339111E2,8.135604E0,7.0952573E0,2.6126804E0,1.7904295E0,9.849302E0,4.3116726E1,1.527546E1,5.9092827E0,3.2150646E1,8.0351875E1,1.331459E2,2.399681E1,3.7645954E1,4.844948E0,1.05078945E1,8.952632E0,1.7155188E1,1.10809715E2,2.2581392E1,6.109143E0,2.0264606E0,4.970289E0,2.1249683E0,1.0295457E0,1.5831347E0,6.494897E0,3.3544054E0,3.9889755E1,3.226973E0,1.4101515E0,1.3865309E1,1.5548074E0,4.3544755E0,3.6816502E0,2.8468996E1,4.164774E1,3.870414E1,7.248533E1,6.0660576E1,1.50788965E1,8.917913E0,1.0013269E1,2.7632687E1,3.2098777E0,1.6350701E0,2.191656E0,8.316238E0,4.6849732E0,4.2676587E0,1.509051E1,2.0646775E0,9.799782E1,1.2811895E1,2.065853E1,1.922862E0,1.0005232E0,1.0259374E0,1.1965541E0,3.773735E0,1.031921E0,1.0930474E0,2.059728E0,1.2946774E0],"tree_param":{"num_deleted":"0","num_feature":"20","num_nodes":"85","size_leaf_vector":"1"}},{"base_weights":[8.101125E-3,-1.5743745E-2,5.979105E-1,1.4450445E-2,-4.2720735E-1,7.973104E-1,-8.793504E-2,-3.5402812E-2,2.8208053E-1,1.2430524E-1,-6.943282E-1,9.0623957E-1,3.5410464E-1,-3.838446E-1,1.9969349E-1,-8.9940466E-2,2.4832231E-1,4.1748282E-1,-5.8503276E-1,-2.4323554E-1,3.1705454E-1,-9.002217E-1,-1.2706897E-1,3.0506954E-1,3.8451138E-1,-1.3302958E-1,2.2912312E-1,2.4618898E-2,-1.902661E-1,2.660918E-3,-3.3838618E-1,-3.36398E-1,5.185743E-1,-2.3235144E-1,5.8967406E-1,1.541155E-1,-8.067298E-1,8.63956E-3,8.617272E-1,-9.5379764E-1,-2.0250343E-2,2.2162788E-1,-4.6401098E-1,2.266091E-1,-8.624574E-2,8.4121466E-2,-5.280442E-2,-1.3523561E-1,2.0606877E-1,1.4364763E-1,-2.0512833E-1,2.1369885E-1,-1.041675E-2,2.2775774E-1,-1.4675881E-1,2.727974E-1,9.9130526E-2,-2.827942E-1,-4.4731162E-2,-5.82595E-2,2.1813187E-1,3.2278347E-1,5.8307137E-2,-3.035708E-1,-4.8657317E-2,-2.0307484E-1,8.252527E-2],"categories":[],"categories_nodes":[],"categories_segments":[],"categories_sizes":[],"default_left":[0,0,0,0,0,0,0,0,0,0,0,0,0,0,0,0,0,0,0,0,0,0,0,0,0,0,0,0,0,0,0,0,0,0,0,0,0,0,0,0,0,0,0,0,0,0,0,0,0,0,0,0,0,0,0,0,0,0,0,0,0,0,0,0,0,0,0],"id":17,"left_children":[1,3,5,7,9,11,13,15,17,19,21,23,25,27,-1,29,31,33,35,-1,37,39,41,-1,43,-1,-1,-1,-1,45,47,49,51,53,55,-1,57,59,61,63,-1,-1,65,-1,-1,-1,-1,-1,-1,-1,-1,-1,-1,-1,-1,-1,-1,-1,-1,-1,-1,-1,-1,-1,-1,-1,-1],"loss_changes":[7.9175744E0,6.7327456E0,3.0616932E0,6.7528605E0,5.5441813E0,5.0209713E-1,1.5550963E0,6.6281977E0,9.574656E0,2.5887709E0,2.8184252E0,3.6198997E-1,1.9736526E0,6.141928E-1,0E0,8.255905E0,1.10931015E1,7.893567E0,3.1303988E0,0E0,1.91511E0,7.502346E-1,2.633328E0,0E0,1.1866645E0,0E0,0E0,0E0,0E0,1.3070254E1,1.1537911E1,6.6840096E0,5.132847E0,4.2520514E0,4.263918E0,0E0,7.234945E-1,1.3533025E0,3.8095784E-1,6.2146854E-1,0E0,0E0,1.1722363E0,0E0,0E0,0E0,0E0,0E0,0E0,0E0,0E0,0E0,0E0,0E0,0E0,0E0,0E0,0E0,0E0,0E0,0E0,0E0,0E0,0E0,0E0,0E0,0E0],"parents":[2147483647,0,0,1,1,2,2,3,3,4,4,5,5,6,6,7,7,8,8,9,9,10,10,11,11,12,12,13,13,15,15,16,16,17,17,18,18,20,20,21,21,22,22,24,24,29,29,30,30,31,31,32,32,33,33,34,34,36,36,37,37,38,38,39,39,42,42],"right_children":[2,4,6,8,10,12,14,16,18,20,22,24,26,28,-1,30,32,34,36,-1,38,40,42,-1,44,-1,-1,-1,-1,46,48,50,52,54,56,-1,58,60,62,64,-1,-1,66,-1,-1,-1,-1,-1,-1,-1,-1,-1,-1,-1,-1,-1,-1,-1,-1,-1,-1,-1,-1,-1,-1,-1,-1],"split_conditions":[3.5E1,1.86E2,5.3E1,8.2E1,1.556E3,5.1111114E-1,5E0,6E0,7.419E3,7E0,2.857143E-1,3E0,5E0,1.7E1,1.9969349E-1,6E0,1E0,1E0,8E0,-2.4323554E-1,4.17E2,1E0,1.6E1,3.0506954E-1,5.466E3,-1.3302958E-1,2.2912312E-1,2.4618898E-2,-1.902661E-1,7.317073E-2,8.3076924E-1,3E0,7.8947365E-2,8.8E1,1.04E2,1.541155E-1,6.61157E-2,1E0,1E0,8.592E3,-2.0250343E-2,2.2162788E-1,3.69E2,2.266091E-1,-8.624574E-2,8.4121466E-2,-5.280442E-2,-1.3523561E-1,2.0606877E-1,1.4364763E-1,-2.0512833E-1,2.1369885E-1,-1.041675E-2,2.2775774E-1,-1.4675881E-1,2.727974E-1,9.9130526E-2,-2.827942E-1,-4.4731162E-2,-5.82595E-2,2.1813187E-1,3.2278347E-1,5.8307137E-2,-3.035708E-1,-4.8657317E-2,-2.0307484E-1,8.252527E-2],"split_indices":[19,1,1,1,11,15,13,13,11,18,15,9,4,18,0,4,1,11,18,0,1,2,19,0,11,0,0,0,0,15,15,8,16,1,1,0,16,10,0,11,0,0,1,0,0,0,0,0,0,0,0,0,0,0,0,0,0,0,0,0,0,0,0,0,0,0,0],"split_type":[0,0,0,0,0,0,0,0,0,0,0,0,0,0,0,0,0,0,0,0,0,0,0,0,0,0,0,0,0,0,0,0,0,0,0,0,0,0,0,0,0,0,0,0,0,0,0,0,0,0,0,0,0,0,0,0,0,0,0,0,0,0,0,0,0,0,0],"sum_hessian":[5.6130096E2,5.404259E2,2.0875084E1,5.0437827E2,3.6047615E1,1.6047096E1,4.8279877E0,4.2590906E2,7.846923E1,1.1936825E1,2.4110788E1,1.2042584E1,4.0045114E0,3.819009E0,1.0089785E0,3.578132E2,6.8095856E1,6.831948E1,1.0149752E1,1.4920373E0,1.0444788E1,1.7259338E1,6.8514514E0,9.152284E0,2.8903008E0,1.3308846E0,2.673627E0,1.5699092E0,2.2490997E0,2.6138013E2,9.643305E1,2.1447355E1,4.6648502E1,1.4237824E1,5.4081654E1,1.4829426E0,8.666809E0,7.317305E0,3.127483E0,1.6079414E1,1.1799229E0,1.5852768E0,5.2661743E0,1.7825272E0,1.1077737E0,1.0210021E2,1.5927992E2,8.741075E1,9.022298E0,6.295064E0,1.515229E1,3.4336884E1,1.2311622E1,2.526906E0,1.1710918E1,2.309592E1,3.0985735E1,6.8231893E0,1.84362E0,6.2753496E0,1.0419556E0,1.9040798E0,1.2234031E0,1.472061E1,1.3588051E0,4.1537623E0,1.112412E0],"tree_param":{"num_deleted":"0","num_feature":"20","num_nodes":"67","size_leaf_vector":"1"}},{"base_weights":[7.4433642E-3,-2.4398564E-1,6.040007E-2,-4.3662082E-2,-3.8523835E-1,2.6992766E-2,5.418704E-1,1.14193045E-1,-7.043286E-1,-4.835485E-1,2.0335889E-1,-2.3586007E-2,2.6227018E-1,-2.6322782E-1,6.524934E-1,4.09644E-1,-3.1596604E-1,-2.6988158E-1,5.7449512E-2,-9.444128E-1,-3.2741916E-1,7.4436885E-1,-3.1562695E-1,-6.5154135E-2,4.5007512E-1,8.7313026E-1,1.4436743E-1,-2.662786E-1,1.366392E-1,1.3192122E-1,7.512378E-1,7.413074E-1,-6.8351215E-1,-4.731386E-1,3.4269077E-1,-5.5853343E-1,-4.102519E-1,2.2452393E-1,-5.422602E-1,3.3540265E-3,2.8644365E-1,-2.7291244E-1,3.6620674E-1,-2.1624474E-2,-8.0061704E-1,1.4016755E-2,8.785865E-1,1.0490053E-1,1.1982417E0,1.8720746E-1,-2.3406579E-1,5.2437985E-1,-2.269872E-1,8.495019E-1,-5.9229964E-3,-5.090983E-3,3.0535674E-1,8.8571794E-2,-3.2934654E-1,1.7931598E-1,-1.940591E-1,-1.5308078E-1,2.9029167E-1,-2.809723E-1,-4.2976774E-2,1.2902445E-1,-1.4610359E-1,-2.026272E-1,7.285499E-2,1.3402572E-1,3.2750677E-2,-1.6451551E-1,6.518065E-3,2.0508265E-1,-2.8081036E-1,1.9961907E-1,-7.5727075E-2,2.939871E-1,2.2548243E-2,-9.334015E-2,1.922748E-1,4.0082982E-1,1.0593397E-1,1.0648683E-2,1.7480567E-1,2.3748462E-1,-1.1939326E-2,2.7781243E-2,2.779236E-1,-2.096856E-1,1.8483746E-1],"categories":[],"categories_nodes":[],"categories_segments":[],"categories_sizes":[],"default_left":[0,0,0,0,0,0,0,0,0,0,0,0,0,0,0,0,0,0,0,0,0,0,0,0,0,0,0,0,0,0,0,0,0,0,0,0,0,0,0,0,0,0,0,0,0,0,0,0,0,0,0,0,0,0,0,0,0,0,0,0,0,0,0,0,0,0,0,0,0,0,0,0,0,0,0,0,0,0,0,0,0,0,0,0,0,0,0,0,0,0,0],"id":18,"left_children":[1,3,5,7,9,11,13,15,17,19,21,23,25,27,29,31,33,-1,-1,35,37,39,41,43,45,47,49,-1,-1,51,53,55,57,59,61,63,-1,65,67,-1,-1,-1,69,71,73,75,77,79,81,83,-1,85,-1,87,89,-1,-1,-1,-1,-1,-1,-1,-1,-1,-1,-1,-1,-1,-1,-1,-1,-1,-1,-1,-1,-1,-1,-1,-1,-1,-1,-1,-1,-1,-1,-1,-1,-1,-1,-1,-1],"loss_changes":[7.322806E0,2.6908355E0,7.2906327E0,4.3248625E0,3.3382597E0,5.0727496E0,2.7916431E0,4.4136868E0,1.5697129E0,3.1642847E0,2.6825795E0,6.9470196E0,5.3055353E0,2.3186135E0,1.2451086E0,7.9100304E0,1.6415335E0,0E0,0E0,1.1439171E0,4.5790253E0,6.938176E-1,2.419828E0,1.0351271E1,5.3079495E0,2.8721752E0,2.697401E0,0E0,0E0,2.2737007E0,1.6245918E0,3.4031286E0,2.462546E0,2.6111455E0,2.270467E0,1.0906243E0,0E0,1.8532846E0,3.0233984E0,0E0,0E0,0E0,1.5648454E-2,7.017978E0,4.2717752E0,2.793523E0,1.0945997E0,1.239733E0,4.9963188E-1,3.72124E0,0E0,6.83437E-1,0E0,1.0362186E0,1.9367125E0,0E0,0E0,0E0,0E0,0E0,0E0,0E0,0E0,0E0,0E0,0E0,0E0,0E0,0E0,0E0,0E0,0E0,0E0,0E0,0E0,0E0,0E0,0E0,0E0,0E0,0E0,0E0,0E0,0E0,0E0,0E0,0E0,0E0,0E0,0E0,0E0],"parents":[2147483647,0,0,1,1,2,2,3,3,4,4,5,5,6,6,7,7,8,8,9,9,10,10,11,11,12,12,13,13,14,14,15,15,16,16,19,19,20,20,21,21,22,22,23,23,24,24,25,25,26,26,29,29,30,30,31,31,32,32,33,33,34,34,35,35,37,37,38,38,42,42,43,43,44,44,45,45,46,46,47,47,48,48,49,49,51,51,53,53,54,54],"right_children":[2,4,6,8,10,12,14,16,18,20,22,24,26,28,30,32,34,-1,-1,36,38,40,42,44,46,48,50,-1,-1,52,54,56,58,60,62,64,-1,66,68,-1,-1,-1,70,72,74,76,78,80,82,84,-1,86,-1,88,90,-1,-1,-1,-1,-1,-1,-1,-1,-1,-1,-1,-1,-1,-1,-1,-1,-1,-1,-1,-1,-1,-1,-1,-1,-1,-1,-1,-1,-1,-1,-1,-1,-1,-1,-1,-1],"split_conditions":[1E0,1.3043478E-1,8.695652E-2,1.52E2,8.915663E-1,6.451613E-1,3E0,1E0,9E0,7.2E1,7.419E3,1E0,1.4E1,5.222E3,1.2E1,9E0,1E0,-2.6988158E-1,5.7449512E-2,4.6E-1,2.314E3,5E0,1.6E1,2E0,1.1E1,2.91E2,2E0,-2.662786E-1,1.366392E-1,6E0,1E0,1.2E1,1.1E1,1.3E1,1.5E1,3E0,-4.102519E-1,5.4545456E-1,1.6E1,3.3540265E-3,2.8644365E-1,-2.7291244E-1,6.122449E-2,3E0,2E0,1.4E1,5.6E1,2.5E1,8E0,3E0,-2.3406579E-1,3.3653846E-1,-2.269872E-1,4.964539E-2,7E0,-5.090983E-3,3.0535674E-1,8.8571794E-2,-3.2934654E-1,1.7931598E-1,-1.940591E-1,-1.5308078E-1,2.9029167E-1,-2.809723E-1,-4.2976774E-2,1.2902445E-1,-1.4610359E-1,-2.026272E-1,7.285499E-2,1.3402572E-1,3.2750677E-2,-1.6451551E-1,6.518065E-3,2.0508265E-1,-2.8081036E-1,1.9961907E-1,-7.5727075E-2,2.939871E-1,2.2548243E-2,-9.334015E-2,1.922748E-1,4.0082982E-1,1.0593397E-1,1.0648683E-2,1.7480567E-1,2.3748462E-1,-1.1939326E-2,2.7781243E-2,2.779236E-1,-2.096856E-1,1.8483746E-1],"split_indices":[7,15,6,1,15,15,13,0,4,11,11,10,19,11,19,5,14,0,0,15,11,5,19,12,5,11,14,0,0,13,14,19,19,19,19,5,0,15,18,0,0,0,16,13,8,19,1,1,4,8,0,15,0,16,4,0,0,0,0,0,0,0,0,0,0,0,0,0,0,0,0,0,0,0,0,0,0,0,0,0,0,0,0,0,0,0,0,0,0,0,0],"split_type":[0,0,0,0,0,0,0,0,0,0,0,0,0,0,0,0,0,0,0,0,0,0,0,0,0,0,0,0,0,0,0,0,0,0,0,0,0,0,0,0,0,0,0,0,0,0,0,0,0,0,0,0,0,0,0,0,0,0,0,0,0,0,0,0,0,0,0,0,0,0,0,0,0,0,0,0,0,0,0,0,0,0,0,0,0,0,0,0,0,0,0],"sum_hessian":[5.47866E2,9.468957E1,4.5317645E2,3.9698524E1,5.4991043E1,4.2476013E2,2.8416342E1,3.2710144E1,6.9883823E0,4.727366E1,7.717384E0,3.5034454E2,7.441558E1,3.266163E0,2.5150179E1,1.9419632E1,1.3290511E1,5.734197E0,1.2541853E0,1.0684909E1,3.658875E1,3.5658915E0,4.151492E0,3.2287198E2,2.7472546E1,1.1002995E1,6.341259E1,1.622014E0,1.6441491E0,4.3824196E0,2.076776E1,1.5146156E1,4.2734756E0,1.0957443E1,2.333068E0,6.8016396E0,3.8832688E0,1.0238974E1,2.6349777E1,1.0301064E0,2.535785E0,2.0399113E0,2.111581E0,3.0580197E2,1.7070023E1,1.4128213E1,1.3344333E1,3.6651056E0,7.3378887E0,6.1366734E1,2.0458581E0,3.3240674E0,1.058352E0,1.8274183E1,2.4935758E0,4.298525E0,1.0847631E1,1.3564461E0,2.9170296E0,1.1888211E0,9.768621E0,1.0641563E0,1.2689116E0,2.9033377E0,3.8983018E0,8.250906E0,1.9880675E0,2.2648104E1,3.7016733E0,1.0457906E0,1.0657905E0,2.2367357E1,2.834346E2,1.0887504E0,1.5981273E1,3.666697E0,1.0461516E1,1.165417E1,1.6901622E0,2.2997062E0,1.3653995E0,5.809326E0,1.5285625E0,4.514003E1,1.6226702E1,1.982079E0,1.3419883E0,1.8889039E0,1.638528E1,1.121014E0,1.3725619E0],"tree_param":{"num_deleted":"0","num_feature":"20","num_nodes":"91","size_leaf_vector":"1"}},{"base_weights":[6.248555E-3,-2.0976301E-2,